f,doe2vec_0,doe2vec_1,doe2vec_2,doe2vec_3,doe2vec_4,doe2vec_5,doe2vec_6,doe2vec_7,doe2vec_8,doe2vec_9,doe2vec_10,doe2vec_11,doe2vec_12,doe2vec_13,doe2vec_14,doe2vec_15,doe2vec_16,doe2vec_17,doe2vec_18,doe2vec_19,doe2vec_20,doe2vec_21,doe2vec_22,doe2vec_23,doe2vec_24,doe2vec_25,doe2vec_26,doe2vec_27,doe2vec_28,doe2vec_29,doe2vec_30,doe2vec_31
p10_p11_i1_i1_a0.25,1.422822,0.65243804,-0.70490587,-0.094759956,-0.07413503,0.059689626,-0.4576774,-0.065806404,-0.23960927,-0.50794405,-0.07075487,-0.0067539783,0.06677664,0.047553644,-0.054718494,-0.0046681883,-0.21995631,-0.08396244,-0.0033396753,-0.0326699,0.61531603,-0.14245975,0.02941643,-0.85191196,-0.03456112,-1.6432197,0.8404068,0.71879864,0.10455954,-2.3083472,0.8764394,-0.0016914634
p10_p11_i1_i1_a0.5,1.4446632,0.7836317,-0.7532016,0.102167726,-0.03728932,0.04404683,-0.6381372,-0.065299794,-0.28123552,-0.51922196,-0.049640395,0.004776297,0.06130034,0.04846744,-0.4893452,0.0012635454,-0.15915433,-0.09862454,-0.0075972304,0.06563574,0.6178744,0.40581924,0.0009945147,-0.89746207,0.0014478979,-1.5775038,1.0922998,0.5748511,0.10681001,-2.4334357,0.7232162,0.015949357
p10_p11_i1_i1_a0.75,1.4832075,0.78654414,-0.7805667,0.23999232,-0.13749123,0.010769973,-0.65569985,-0.06635775,-0.3201142,-0.6363295,-0.04881026,0.020530421,0.056469586,0.061152715,-0.8219448,0.0014191554,-0.21554014,-0.0845747,-0.006773317,0.11530602,0.59213495,0.92990345,-0.012005022,-0.97980887,0.024802916,-1.4969501,1.1818086,0.50730014,0.12029441,-2.5265899,0.59229845,0.025865048
p10_p11_i2_i2_a0.25,-0.44020927,1.5877856,0.3888133,-0.39205623,1.1731148,-0.052923203,1.1419947,0.012194622,-0.38719577,1.6620405,0.07569381,0.07181325,-0.078461744,0.06659642,-1.9198861,-0.01936591,0.3631399,-0.029863048,0.13150239,0.3429621,0.2515728,-0.42530578,0.06399873,0.97793514,0.02968492,-1.4343472,-0.6937696,0.18274403,0.034231566,1.1950082,0.0635456,0.118561685
p10_p11_i2_i2_a0.5,-0.39449033,0.8832117,0.50272226,-0.42199183,0.61969554,-0.055681817,0.46428025,0.029218532,-0.4468709,1.7526832,0.12635797,0.0021171197,-0.060636718,0.0664078,-1.449795,-0.019851696,0.67889786,-0.062070727,0.13474162,0.27357072,-0.12506628,-0.37290454,0.05576253,0.8278184,-0.017817626,-1.3837184,-1.4507594,0.44154185,0.009900703,2.0301485,0.2870186,0.15731102
p10_p11_i2_i2_a0.75,-0.4008956,0.2003034,0.90526915,-0.48790365,0.46539003,-0.0034391377,0.39466026,0.06458944,-0.23392086,2.1200745,0.12394336,0.020843197,-0.009109666,0.09790315,-0.36186272,-0.017435584,0.34045923,-0.060323186,0.10809482,0.30806726,-0.74990904,-0.3975153,-0.012683293,0.035136465,-0.01884254,-1.1582884,-2.1071627,0.45322478,-0.010544169,3.1640825,0.5731467,0.15550435
p10_p11_i3_i3_a0.25,0.091699004,0.21559168,-0.76173997,0.13715398,0.8177302,-0.011176266,0.19479026,-0.0539312,-0.46251163,0.97334176,-0.054653503,0.005433864,-0.020663861,0.054339655,-1.4187801,0.033387087,-0.2732055,-0.10534015,0.027918847,0.3513974,1.028316,0.61978984,0.071702726,-0.85582197,0.0076911002,-1.422504,-0.65603065,0.81371105,0.033995662,0.39342117,-0.18721132,0.09280441
p10_p11_i3_i3_a0.5,0.9575683,0.043852866,-0.5161427,0.63034487,0.1300779,-0.0014357176,-0.025413435,-0.055614565,-0.1986703,0.1690395,-0.073636636,0.017977633,-0.018352184,0.0834384,-1.1588383,-0.0018982952,0.113159746,-0.08337428,-0.011430526,0.29858315,1.0132807,0.97227347,0.011592052,-0.3510749,0.020105679,-1.2605314,-0.39323023,0.45109138,-0.0032040644,0.1881308,-0.30068076,0.092813425
p10_p11_i3_i3_a0.75,1.5283452,-0.42340624,-0.1300313,1.1497219,-0.21398324,-0.014279446,-0.431039,-0.071771264,-0.21681485,-0.02359378,-0.047508977,0.019043457,-0.013526461,0.07250528,-0.7419796,-0.023152743,-0.27324435,-0.102081075,-0.02329634,0.22839725,0.6669551,1.2842903,-0.0051429495,0.21704414,-0.0073129083,-1.3484577,0.36277267,0.4341735,0.018521257,-0.3427,-0.3964184,0.105073564
p10_p11_i4_i4_a0.25,-0.05428621,-0.014572188,-0.9607285,0.36210808,-0.6500416,-0.020275941,-0.61411,-0.053310316,-0.97203875,-0.44456944,-0.026016727,-0.05480769,0.0022883601,0.10376719,-1.0882607,-0.022697572,0.3533342,-0.04154642,0.056492895,0.17622173,-0.7815159,1.3570926,0.06809659,0.0033637285,0.053518787,-1.5267615,1.3098334,1.2960777,0.026050176,0.15007147,0.29709262,0.02577722
p10_p11_i4_i4_a0.5,-0.11966169,0.27917224,-0.627836,-0.15579899,-0.63500583,-0.033231705,-0.55167454,0.01447412,-0.7886275,-0.2970484,-0.032915004,-0.05174335,-0.013701211,0.06439218,-0.6285176,-0.042308852,0.3564973,-0.023753433,0.049433798,0.25670224,-0.8862329,1.2291822,0.056316674,-0.39973965,0.020543154,-1.4444203,1.4373816,1.1551706,0.07396975,0.37776864,0.7402904,0.0024104314
p10_p11_i4_i4_a0.75,-0.045156844,0.51673055,-0.43827426,-0.5725504,-0.5551697,-0.026081169,-0.42058724,-0.00014040153,-0.22413161,-0.26240894,-0.056096017,-0.049543645,0.006809691,0.06819983,-0.046128154,-0.06269023,0.3221751,-0.03259148,0.033615015,0.30072498,-0.5603414,0.43153858,0.05703304,-0.84220773,-0.034533445,-1.4681845,1.2302923,1.2306807,0.1244497,0.7800195,1.3719718,-0.020570409
p10_p11_i5_i5_a0.25,0.54614085,-0.4111184,-1.3488426,-0.24935235,1.0545413,-0.10885587,0.24922846,-0.027509058,-0.59233725,0.3825018,-0.015599507,0.022030704,-0.025179937,0.12336184,-1.6784294,-0.01535008,0.44497257,-0.078936055,0.03526678,0.046170294,-0.7327105,0.5820369,0.09346921,-0.28504014,-0.026118405,-1.5620829,-0.31462166,0.8882922,0.07606476,0.03690713,0.0012179166,0.070577405
p10_p11_i5_i5_a0.5,0.49174637,-0.38985896,-1.1955314,-0.072078526,0.8712409,-0.10382342,0.24665777,-0.032846723,-0.5955462,0.28701168,-0.014864967,0.026580319,-0.026236292,0.11824107,-1.6573267,-0.034952305,0.4674435,-0.07992602,0.03441053,0.053920567,-0.77090406,0.680258,0.095709115,-0.12074703,-0.034463916,-1.5674348,-0.14677268,0.6891302,0.08620482,-0.05292535,0.061048403,0.07670007
p10_p11_i5_i5_a0.75,0.36288363,-0.3278545,-0.88001204,0.04158804,0.67328924,-0.08271141,0.21418218,-0.026616363,-0.47098106,0.017909788,-0.01615341,0.02740816,-0.027451348,0.10867123,-1.541234,-0.04792543,0.55422753,-0.07748656,0.034498475,0.07369405,-0.8478815,0.71632785,0.07763419,-0.08707379,-0.02312997,-1.5644245,0.018203463,0.48705256,0.08258808,-0.118462965,0.13026439,0.07866752
p10_p12_i1_i1_a0.25,0.049172103,-0.13635091,-1.0268589,-0.7154732,-0.29578942,-0.0109448135,-0.6028558,0.0035059834,-0.24969631,1.3687961,-0.013088855,-0.0140865585,-0.011151192,0.16866468,-0.4404732,-0.06512776,-0.35933134,-0.057139803,0.032060765,0.48925608,-0.71574324,-0.121393114,-0.0126516465,1.5487106,-0.011367569,-2.5048678,1.1351241,1.139617,0.1362742,1.4021289,1.448314,0.12099891
p10_p12_i1_i1_a0.5,0.7697236,-0.16650723,-0.76778734,-0.10873303,-0.52674866,-0.003687663,-0.45570818,-0.007912903,-0.18955848,0.9728262,-0.012768645,-0.030230027,0.016758267,0.12731035,-0.7377875,-0.05950332,-0.23065123,-0.06147843,0.0057834787,0.24056524,-0.2329863,-0.3604769,0.012218419,0.3306286,-0.057282723,-1.9760758,1.446908,1.3779913,0.09482724,1.0206372,0.95234257,0.07447199
p10_p12_i1_i1_a0.75,1.5041931,0.38007507,-0.3339178,-0.07015489,-0.5056093,-0.009062,-0.85550857,-0.04726615,-0.2567489,-0.007035099,-0.010503437,-0.04268171,0.015144471,0.03630509,-1.1567776,-0.063240215,0.06341636,-0.10751412,0.0068558957,0.19584715,0.21704589,0.61153364,0.040719368,-1.1596829,-0.06110116,-1.5847586,1.5308086,0.7678488,0.13755971,-1.2351671,0.6720511,-0.0057016676
p10_p12_i2_i2_a0.25,0.17181747,-1.2440325,-0.5480138,-0.13656709,-0.24643846,-0.06521923,-0.16343579,0.0007562288,-0.37173915,-0.45475602,-0.04319068,0.040656984,-0.044733867,0.061036903,-0.3418268,-0.066930324,-0.49124166,-0.05339137,0.001378838,0.22985137,-0.16943845,1.3773663,0.05965642,-0.077353165,-0.0022906032,-1.8499777,0.43802348,0.70249605,0.13632604,-0.6933961,0.17947923,-0.05537672
p10_p12_i2_i2_a0.5,0.28391755,-0.6930647,-0.30434167,-0.43536407,-0.24538887,-0.06496168,0.08223319,0.07074508,-0.4716546,0.012266088,0.04862333,0.026362684,-0.049795717,0.10351838,0.10670656,-0.05052683,-0.41014603,-0.054934055,0.025343332,0.22126669,-0.44463313,0.8252781,-0.020213371,-0.64108235,0.041560143,-1.471718,-0.9662952,0.561616,0.043589942,1.3634074,0.42455888,0.038812686
p10_p12_i2_i2_a0.75,0.4993174,-0.14975436,0.36985418,-0.4201041,-0.24678545,-0.001973329,0.14243318,0.07566413,-0.2523322,1.0456073,0.097323835,-0.030353524,-0.003959625,0.12516245,0.3812132,-0.055570062,-0.4445761,-0.09521123,0.057540424,0.16375202,-1.0813427,0.09120089,-0.028965807,-0.97630817,0.023643348,-1.3686975,-1.9479285,0.3967713,-0.0108042825,2.721949,0.64253294,0.07767604
p10_p12_i3_i3_a0.25,-0.8297251,0.52917063,0.16252583,0.69868135,0.4519893,-0.022003556,-1.665824,-0.21636033,-0.39355153,0.8404861,-0.18936238,-0.010552827,-0.018757243,0.0782626,-0.40606043,-0.14669073,-1.9437569,-0.16745675,0.05119542,0.23563838,-0.2714289,-0.6519383,-0.080895275,0.2811535,-0.070198074,-2.3521647,1.8052497,0.96484125,0.2812656,0.692321,-0.89988756,-0.016243584
p10_p12_i3_i3_a0.5,0.025117323,0.037243664,0.11069986,0.53281283,-0.039026365,0.056351863,-1.2330408,-0.18680337,-0.07911712,0.21623473,-0.114125386,-0.06993574,-0.028383717,0.0421537,-0.45390064,-0.107275814,-0.9777882,-0.14427498,0.014913997,0.21917933,0.012727797,-0.23231912,0.050799467,0.86747146,-0.0816627,-2.080581,1.9090067,0.88077396,0.13808046,0.6094012,-0.78917634,-0.045931995
p10_p12_i3_i3_a0.75,1.4883171,-0.39070362,0.19962347,1.2923205,-0.5628566,-0.0004820414,-1.1731781,-0.15456362,-0.2925895,-0.15563074,-0.019237699,-0.028348144,-0.03602176,0.03217243,-0.35703087,-0.06719057,-0.72991586,-0.11039965,-0.019318296,0.25845325,0.06895833,0.74373144,0.004629424,0.8910999,-0.10231341,-1.4686872,1.6905018,0.66854024,0.093989395,-0.6526741,-0.5327177,0.060721733
p10_p12_i4_i4_a0.25,1.551344,0.72585547,-1.078765,0.5438781,-0.35294056,-0.005155131,-0.27010083,-0.10487807,-0.27275223,0.41058335,-0.16637248,-0.07027151,0.012560467,0.09932518,0.6751067,-0.030242022,-1.0081407,-0.13214335,0.08530006,0.72988564,-0.13670108,-0.9605345,0.042300828,0.4931156,-0.1536911,-2.826479,0.88557667,1.914154,0.18129022,-1.670998,0.6327632,0.12928519
p10_p12_i4_i4_a0.5,1.0817201,0.50920343,-0.7889452,0.5636697,-0.21962188,0.029346306,-0.23061828,-0.10968977,0.2421771,-0.106777295,-0.16217363,-0.054373223,0.019687157,0.08098242,0.5859358,-0.06396291,-0.8020526,-0.11430075,0.049878538,0.38737977,-0.0881179,-0.8884943,0.05735796,0.35586882,-0.13901071,-2.376524,0.8453234,1.4674695,0.21815495,-1.4208719,0.88292783,0.057778787
p10_p12_i4_i4_a0.75,0.7656965,0.17539471,-0.54111433,0.09764281,-0.06113615,0.047334954,-0.18614446,-0.08265731,0.46587202,0.015719166,-0.11746994,-0.03771086,0.0014456646,0.07357176,0.49223036,-0.067628026,-0.66593444,-0.09667974,0.03550779,0.21108484,0.17623886,-0.7322042,0.09175057,0.02965574,-0.11914843,-2.1104808,0.71753603,1.5752321,0.2051365,-1.0345213,1.2544769,-0.0082427515
p10_p12_i5_i5_a0.25,-0.86864793,-0.39623392,-1.6814537,1.2349772,-0.15811597,0.1331046,-0.3800612,-0.26777703,-0.42535868,-1.3005848,-0.09292449,-0.054842178,0.015461557,0.0908764,-0.687268,-0.044925045,-0.09181163,-0.2061896,0.069898106,0.5124448,0.3307463,-1.0713575,0.20375079,-0.28908545,-0.035648867,-2.025311,0.40541768,0.7768425,0.010529677,-3.869496,0.72135854,-0.091620326
p10_p12_i5_i5_a0.5,-0.7702732,-0.6646873,-0.7793422,0.9436127,0.036817268,0.02533323,0.32379708,-0.14881377,-0.061711162,-0.8711837,-0.05546725,0.030286789,0.009460856,0.03453327,-0.7056386,-0.04921588,0.13002303,-0.10032993,0.035090543,0.3322739,-0.17628849,-0.5879176,0.16556956,-0.44854018,-0.069156356,-1.6178751,0.18539318,0.3082133,0.035319515,-3.0538847,0.3722937,-0.04422566
p10_p12_i5_i5_a0.75,-0.45628726,-0.48786485,-0.44886497,0.5206481,0.22104123,-0.03363104,0.4093904,-0.07487154,-0.09113842,-0.5226775,-0.010575902,0.02784669,-0.03065595,0.06438263,-1.0832154,-0.01543327,0.5217684,-0.0818095,0.03719388,0.24563962,-0.5773543,0.18391371,0.10565736,-0.43615094,-0.015117342,-1.5667818,0.26364088,0.15980941,0.0579708,-1.780649,0.28619194,-0.00082713645
p10_p13_i1_i1_a0.25,1.2539171,0.3765044,0.200876,0.40857986,0.1420941,0.012942276,-0.5901978,-0.10484372,-0.17353863,-1.2995209,-0.22179693,0.0750573,0.0756157,0.01568641,-0.26020598,-0.031930435,0.5130844,-0.013908894,-0.06701417,0.8360153,0.008472055,0.6154194,-0.06250249,-0.32102394,0.021091707,0.10268271,0.9325962,-0.03008902,0.10305541,-3.4829993,0.5666395,-0.020645522
p10_p13_i1_i1_a0.5,1.452065,0.47153768,-0.3480636,0.71826315,-0.29079354,0.0007889513,-0.47353673,-0.10939117,-0.2504853,-1.0175133,-0.14450936,0.04290001,0.07275736,0.051654298,-0.7988311,0.00013505528,0.15526739,-0.026376849,-0.042760268,0.4198274,0.062293917,1.0754645,-0.043848813,-0.45017368,0.04187014,-0.5788388,1.0964518,0.19552392,0.076143764,-2.9335685,0.48687154,0.009470388
p10_p13_i1_i1_a0.75,1.5301567,0.6695512,-0.5965819,0.5601268,-0.39725512,-0.017162068,-0.5941233,-0.08310348,-0.39995804,-0.7599777,-0.09661696,0.025489312,0.057323046,0.0647262,-1.0585803,0.0071382206,-0.038024753,-0.042127058,-0.019584147,0.25310326,0.38900852,1.2664638,-0.028328383,-0.67861277,0.05000945,-1.0625906,1.1625156,0.3976597,0.096977144,-2.740336,0.49263424,0.029057905
p10_p13_i2_i2_a0.25,1.1967037,-0.05047266,1.2955565,-0.31683818,-0.30578724,0.050876036,0.6812572,0.03380972,0.26669416,0.97019386,0.12203348,0.027303241,-0.060872745,0.13566856,0.38052434,-0.1106268,-0.67074764,-0.08038628,0.06809411,0.5652719,-0.67359984,-1.5079293,-0.12391155,-0.30757952,-0.016369624,-0.3586399,-1.738529,0.4844522,-0.021918897,4.1680255,0.5073324,0.089945525
p10_p13_i2_i2_a0.5,0.8226473,-0.12200467,1.1047959,-0.26869896,0.015446052,0.027479416,0.6770733,0.055775043,0.13973084,1.4024718,0.1468506,0.019708972,-0.048403718,0.13251361,0.28846943,-0.07492053,-0.5778954,-0.08856935,0.0750897,0.30892056,-1.089906,-0.94102806,-0.08737083,-0.69619507,-0.0052758045,-0.82029593,-2.0654104,0.4423124,-0.014207582,3.860867,0.5977395,0.08509387
p10_p13_i2_i2_a0.75,0.6756168,-0.019291148,0.9375988,-0.37820825,0.031168029,0.023498807,0.3415051,0.06652659,-0.013031393,1.5444928,0.13452607,-0.016714342,-0.0032817721,0.12102315,0.27233636,-0.050409507,-0.19321832,-0.09486436,0.082755014,0.1365611,-1.2613344,-0.4683259,-0.059076793,-0.96651417,0.008798881,-1.1649892,-2.233071,0.43360713,-0.020538758,3.4297864,0.6619743,0.09011226
p10_p13_i3_i3_a0.25,1.8038646,-0.47962987,1.0245844,1.4971569,-1.0633334,-0.014943138,-0.14417516,-0.03309697,-0.7722535,-0.06414193,-0.020084003,-0.028752465,-0.018567175,0.048132464,-0.37813675,-0.076373465,-0.13286957,-0.02978994,-0.0022860123,0.70234925,0.20198242,1.6339803,-0.07293857,0.3060964,-0.041404814,-0.40376556,0.046037216,0.514036,0.035210226,0.54187256,-0.44749647,0.08812166
p10_p13_i3_i3_a0.5,1.9246306,-0.7869933,0.8084755,1.713855,-0.9559632,-0.042169794,-0.3303437,-0.05180564,-0.56731385,0.04098067,-0.0056749787,-0.020124588,-0.010207473,0.036939427,-0.2576399,-0.07446339,-0.57372785,-0.069249615,-0.01235236,0.39653003,-0.10149115,1.5114493,-0.07305842,0.4699487,-0.06770028,-0.8722073,0.19515301,0.41750678,0.030796885,-0.32135043,-0.4256751,0.113198295
p10_p13_i3_i3_a0.75,1.8617687,-0.945728,0.40691605,1.6964628,-0.5442951,-0.050339125,-0.4288365,-0.06589128,-0.5542646,0.24935424,-0.0045739077,-0.010027569,-0.009180696,0.04753323,-0.25945884,-0.054186426,-0.7863072,-0.087983645,-0.021224061,0.23451495,0.093850486,1.525989,-0.03254427,0.68859166,-0.08171778,-1.2011334,0.51874435,0.49622577,0.042520218,-0.7054177,-0.46467966,0.12082183
p10_p13_i4_i4_a0.25,0.6632035,0.32083642,-0.27846068,-0.30681357,-0.52728915,-0.0045760013,-0.040186636,-0.074115396,-0.35391635,0.23775332,-0.03779399,0.025715455,0.05379304,0.09763327,-0.9487234,0.0013190149,-0.35936084,-0.042818554,-0.009482637,0.5861532,0.12985213,-1.4343963,0.03216169,-1.1485138,-0.032538455,-0.38157076,1.1455026,0.7672566,0.021306742,-0.67704374,1.0924691,0.0015704371
p10_p13_i4_i4_a0.5,0.5786143,0.33686236,-0.47631636,-0.51630867,-0.07606643,0.0144196395,-0.12630406,0.009827098,0.043899328,0.012026681,-0.034125857,-0.007944039,0.011898141,0.058006223,-0.065734625,-0.021329332,-0.2838829,-0.054972988,-0.027861645,0.43813616,-0.12111831,-0.9745924,0.015484227,-1.1172041,-0.016787762,-0.8730414,0.92049134,0.84148765,0.054555975,0.16302295,1.3051988,-0.057388816
p10_p13_i4_i4_a0.75,0.31489646,0.45145154,-0.64514565,-0.56572133,-0.12043553,0.029413387,-0.34890538,-0.012316883,0.20349923,-0.04455867,-0.05076743,-0.052882977,0.028965194,0.085135266,0.31202948,-0.033405703,-0.12611005,-0.06861839,0.002075743,0.25760102,-0.26404184,-0.7289987,0.037596345,-1.147923,-0.0401075,-1.3286456,0.6672262,1.3176124,0.059780374,0.4507628,1.6238848,-0.03795943
p10_p13_i5_i5_a0.25,-1.0954322,-0.16884,-1.1520331,-0.3055923,0.9342405,-0.03997957,0.17992033,-0.015124234,-0.07779428,-0.38929853,-0.08429009,0.07423001,0.021385092,0.054686982,-0.81531364,-0.027031004,0.8809262,-0.04557327,0.049575903,0.7970529,-0.76410586,-0.85916907,0.103677675,0.13468574,0.024662964,-0.15289724,0.433862,-0.20302102,-0.009534394,0.22526318,0.57392555,0.030166537
p10_p13_i5_i5_a0.5,-0.48526233,-0.107316926,-0.905236,0.15961367,0.7278863,-0.060713194,0.5351444,-0.031781264,-0.28886592,-0.09055209,-0.055750236,0.052508242,-0.0055250293,0.05543386,-1.4353793,-0.07748927,0.67978823,-0.059378624,0.040973645,0.51208204,-0.8337535,0.19144139,0.08473734,0.17197815,-0.00680005,-0.6780497,0.3802035,-0.17171338,0.013724974,-0.20787461,0.39885437,0.041748803
p10_p13_i5_i5_a0.75,-0.17910984,-0.08824931,-0.78008866,0.261794,0.60577965,-0.0682816,0.53457963,-0.01802779,-0.29997772,-0.1379283,-0.022529379,0.035818506,-0.016995858,0.073703185,-1.5404664,-0.0788858,0.65338707,-0.07424857,0.03289104,0.31279737,-0.8693817,0.6707498,0.06834785,0.028180225,-0.011128737,-1.178284,0.2119573,0.017657965,0.048225895,-0.17630146,0.29766905,0.053997025
p10_p14_i1_i1_a0.25,1.0642413,-0.2647729,-0.2846702,-0.15458289,-1.3115699,0.013026254,-0.5988553,-0.11868881,-0.35997653,-0.25860617,-0.04895806,-0.042917855,0.029897116,0.052383803,-0.26201746,-0.07423677,-0.29047367,-0.07195829,-0.019045897,0.3279155,-0.110081166,-0.20855361,0.07253555,-0.5176689,-0.15456642,-1.4026321,2.2897651,0.8370029,0.09431505,-1.7824903,0.5997067,-0.020458985
p10_p14_i1_i1_a0.5,1.3330411,0.12342884,-0.13714889,0.21082208,-1.2831197,-0.0015838295,-0.4270101,-0.11936104,-0.35289478,-0.6996371,-0.067270145,-0.03238557,0.03163694,0.05937424,-0.6121857,-0.039914403,-0.21920875,-0.02286209,-0.009659899,0.44514173,0.0068746954,0.6913987,0.032022007,-0.67922074,-0.096808605,-1.0942624,2.0681121,0.8417308,0.10342269,-2.4752371,0.71456385,-0.0313195
p10_p14_i1_i1_a0.75,1.5834206,0.39167207,-0.48862463,0.5345546,-0.7295568,-0.015030621,-0.33854124,-0.08196747,-0.28890577,-0.69948375,-0.07761061,-0.005013993,0.052819617,0.058224414,-0.96551096,-0.013231966,-0.17731193,-0.032061066,-0.016479405,0.3434639,0.27255377,1.3298006,0.0013194531,-0.8932059,-0.014309517,-1.164812,1.6341656,0.6375526,0.12014207,-2.7053857,0.6191286,-0.0010090834
p10_p14_i2_i2_a0.25,0.50807214,-0.54712033,1.0364658,-0.5037619,0.20669541,-0.06297557,-0.07194137,0.0013201591,0.032292813,0.6711964,0.037880097,0.0060671885,-0.041186407,0.021020846,1.0549643,-0.057314936,-1.2013081,-0.10420336,0.014942858,0.28274047,-0.58782464,-0.73535246,-0.00008528493,0.11343153,-0.027350795,-1.3633304,-1.5762482,0.56739855,-0.05438667,0.37825978,0.3705483,0.08080461
p10_p14_i2_i2_a0.5,0.5148588,-0.4639513,1.0921911,-0.38444304,0.14665404,-0.049048863,-0.083067164,0.040392917,-0.06300762,1.2813232,0.06815403,-0.013523046,-0.023618538,0.06483813,0.8667217,-0.05525412,-1.0071174,-0.124296546,0.01452115,0.23525786,-0.8282773,-0.5287404,-0.018353345,-0.15611799,-0.032561984,-1.3090414,-2.01759,0.5040492,-0.051142532,1.5784333,0.5285458,0.10256641
p10_p14_i2_i2_a0.75,0.50156504,-0.2405131,1.237362,-0.30799276,0.23004338,-0.011632681,0.27866626,0.06849076,0.05087188,1.5410467,0.105724394,-0.014778349,0.0045353766,0.10759018,0.8038508,-0.050941683,-0.46174482,-0.09563279,0.044989385,0.2307607,-1.3213298,-0.25064334,-0.04272175,-0.7346012,-0.005891422,-1.1887385,-2.3183138,0.33590597,-0.037755184,2.6735866,0.722264,0.08575068
p10_p14_i3_i3_a0.25,1.6922796,0.37197298,-0.6040782,0.94978225,-1.0577911,-0.019003404,-0.35426322,-0.04292603,0.052970678,-0.09900099,-0.07168174,-0.0059443694,0.005636847,0.078193665,-0.29732397,-0.05984236,-0.6203095,-0.043139912,-0.01867683,0.6024267,-0.5035603,1.8937232,-0.07235008,-0.21432775,-0.009479303,-0.97566426,0.85439485,0.59321535,0.109748185,-0.064769104,-0.63441104,0.040803995
p10_p14_i3_i3_a0.5,1.7626616,-0.18724446,-0.13967901,1.6046968,-0.87920576,-0.015818322,-0.4147717,-0.07623911,0.18903103,-0.056825053,-0.048228312,-0.016472144,-0.013683313,0.052603394,-0.17510417,-0.07366983,-0.7685859,-0.095161535,-0.029103858,0.3888821,-0.3715471,1.7601466,-0.031109793,0.45376518,-0.054804653,-1.1415148,0.77488977,0.42025086,0.086113326,-0.5117604,-0.5987871,0.06268133
p10_p14_i3_i3_a0.75,1.7695479,-0.7869515,0.09680453,1.8194648,-0.5762893,-0.03734225,-0.44268167,-0.09960456,-0.16564909,0.13496841,-0.011893393,-0.003405963,-0.014576218,0.053166,-0.19611374,-0.05882289,-0.8110229,-0.10132774,-0.028261693,0.2431354,-0.079098314,1.6665196,-0.004716575,0.81068236,-0.091377184,-1.296405,0.6352429,0.47915193,0.059131995,-0.701507,-0.5754935,0.092175715
p10_p14_i4_i4_a0.25,0.81774175,-0.35300195,0.1557917,0.12908086,-0.19366366,0.0038842969,-0.2737595,-0.060611296,-0.40629238,0.9705152,-0.04658883,-0.091281176,-0.0013519134,0.03137669,0.43105215,-0.049532764,-0.7206861,-0.09034557,-0.018067675,0.36541545,-0.44353783,-2.022129,0.11032674,-0.9502156,-0.16083263,-1.3665302,0.5076959,1.034096,0.048351713,-0.66604793,1.1852411,-0.03379104
p10_p14_i4_i4_a0.5,0.63486964,-0.10809146,-0.045704253,-0.18854357,-0.105642065,0.026767086,-0.3950622,-0.060993627,0.010566264,0.56183934,-0.042429533,-0.10119002,-0.0074416995,0.046127018,0.36035103,-0.05038779,-0.52345896,-0.10111867,-0.0019836007,0.30637443,-0.39186943,-1.7536063,0.09436483,-0.97670394,-0.124880455,-1.4859017,0.45418504,1.3920178,0.049303524,-0.078832015,1.3973502,-0.036477823
p10_p14_i4_i4_a0.75,0.47400343,0.15203065,-0.40015006,-0.34933162,-0.048642047,0.04429838,-0.37318546,-0.025362628,0.34734485,0.25757846,-0.05261144,-0.07250082,0.0146084,0.071743354,0.3597406,-0.05442819,-0.29912356,-0.0983384,0.014766892,0.22183186,-0.27299425,-1.1713679,0.07184644,-1.0099558,-0.070288114,-1.5815699,0.45439526,1.544335,0.05785452,0.27373332,1.602643,-0.028566536
p10_p14_i5_i5_a0.25,-0.17129779,-0.8316671,-1.3564918,-0.18536639,-0.40641063,-0.008375108,-1.2711433,-0.181999,-0.36317644,-0.19684282,-0.06850285,0.034770504,0.06313036,0.09992434,-2.1584895,-0.016408224,0.27971947,-0.051220246,0.037727773,0.6126049,1.0571997,-0.3850916,0.09408122,0.09146469,-0.008692948,-0.9374052,1.223159,0.75058806,-0.01765429,-2.1932828,-0.245216,0.0644959
p10_p14_i5_i5_a0.5,0.029777959,-0.42206,-1.6231174,0.09430885,0.15202847,-0.06631663,-0.47063008,-0.111756444,-0.41035384,-0.03179397,-0.086355746,0.0454462,0.039969966,0.09759216,-2.2094514,-0.029199637,0.27498204,-0.031324595,0.026077073,0.50662345,0.42908368,0.13892512,0.11451081,0.21074098,-0.009356132,-0.96765083,1.1243818,0.31372097,0.024119232,-1.7824472,0.025919482,0.047569845
p10_p14_i5_i5_a0.75,0.085406736,-0.20889758,-1.2343054,0.44065955,0.6058685,-0.09322135,0.16595055,-0.06389761,-0.4392556,-0.17285201,-0.044534698,0.03786452,-0.012043704,0.0908438,-2.1213198,-0.043051425,0.5587731,-0.05126801,0.035304174,0.45343536,-0.18929109,0.7048212,0.11624921,0.047757216,-0.016362283,-1.0797181,0.63964,0.14583787,0.05016936,-1.0935676,0.23459913,0.039201073
p10_p15_i1_i1_a0.25,1.391809,-0.18628357,-0.22715406,0.4029797,-0.19902936,0.0118414145,-0.84298337,-0.1340726,-0.19616014,-1.1396582,-0.08437492,0.01373878,0.023968779,0.01871288,-1.0163558,-0.052271243,0.7060338,-0.08665273,-0.041585788,0.5391862,-0.037986666,-0.4384063,0.00033232756,-0.5347466,-0.019274838,-0.9474584,0.7364957,0.376218,0.04051382,-1.8527933,0.20055716,-0.003754354
p10_p15_i1_i1_a0.5,1.5729674,0.23133282,-0.3176023,0.5768086,-0.1964906,0.007070314,-0.6873732,-0.1199417,-0.22946054,-1.0837264,-0.0780489,0.015682738,0.04679488,0.04564072,-1.0586791,-0.030942898,0.3631804,-0.06871727,-0.04321804,0.42237657,0.02129969,0.43794632,-0.023283912,-0.6734904,0.016750008,-0.98533905,1.0534387,0.34564108,0.059810773,-2.284717,0.36033797,0.0015284074
p10_p15_i1_i1_a0.75,1.5322737,0.5186188,-0.57237005,0.49788943,-0.2753126,-0.008383848,-0.70427436,-0.08844152,-0.33365119,-0.83342654,-0.06784122,0.013456485,0.04307947,0.06413704,-1.1022918,-0.014779485,0.023672372,-0.07080263,-0.028629178,0.25309718,0.3130787,1.0233002,-0.020703433,-0.7684947,0.03804481,-1.217697,1.1673789,0.46889853,0.087802425,-2.405892,0.42828876,0.020708874
p10_p15_i2_i2_a0.25,1.294318,-0.45374155,0.88151395,0.03846684,0.2463268,0.040890884,0.93601555,0.050634883,0.37081006,0.54383886,0.17720464,0.037299674,-0.05122411,0.14956972,-0.026765227,0.038465306,1.4935986,-0.12298436,0.09112905,0.3230275,-1.4153054,0.43822366,-0.06264352,0.2754194,0.039800562,-1.2142395,-3.1161091,0.3227347,-0.022753723,3.0499153,0.27759337,0.08170694
p10_p15_i2_i2_a0.5,0.9282384,-0.28526396,1.1993023,0.09383267,0.25614554,0.022360617,0.6600989,0.048108507,0.39899066,1.3321196,0.17403078,0.024757497,-0.047183417,0.12448637,0.103052676,-0.008366263,0.9187709,-0.12061716,0.08690437,0.27878755,-1.3891549,0.36427438,-0.08262276,-0.45547634,0.030782565,-1.1569307,-3.0926824,0.15086582,-0.000490563,3.4411232,0.47963238,0.09049934
p10_p15_i2_i2_a0.75,0.70912516,-0.16941456,1.1476128,-0.14068593,0.28316888,0.0069201607,0.3089454,0.056091,0.23963365,1.5327852,0.153501,0.01566894,-0.0017900448,0.115428805,0.28932703,-0.027808368,0.5871963,-0.10069557,0.08874203,0.19469643,-1.3812201,0.24611905,-0.077580765,-0.79407305,0.027896639,-1.2214419,-2.786849,0.19003692,-0.010500006,3.3578775,0.63732386,0.095179856
p10_p15_i3_i3_a0.25,0.46883368,0.50243086,0.54595566,0.26921788,-0.57496357,-0.080775306,0.17847824,-0.15400445,-0.62336993,1.0880992,-0.03829216,0.023492213,-0.041856524,0.053212244,-1.0527534,-0.0063730115,-0.77131176,-0.06592661,0.034353852,0.69176954,0.5457431,0.83804196,-0.0034560133,0.7349586,-0.113264754,-1.1387265,-0.081110984,0.6465983,0.09934231,-0.4174997,-0.76775664,0.11299552
p10_p15_i3_i3_a0.5,1.464812,-0.17710184,0.9490197,1.2749456,-0.87082964,-0.05042696,-0.017123416,-0.09906036,-0.4980193,0.6191789,-0.0038064197,-0.0060578426,-0.04056308,0.035930622,-0.551265,-0.05343733,-0.5394331,-0.07799524,-0.016546864,0.5452661,-0.0248207,1.1287234,-0.045145012,0.53307694,-0.106539354,-1.0135701,0.16619875,0.4403876,0.06381245,-0.794892,-0.64926034,0.08531545
p10_p15_i3_i3_a0.75,1.7749314,-0.8614399,0.6119245,1.7569114,-0.5983428,-0.049760707,-0.30904174,-0.088532686,-0.46493503,0.33438858,-0.0033008642,-0.009410508,-0.022396855,0.05616351,-0.334528,-0.055945847,-0.73632336,-0.090251,-0.025908025,0.34534752,-0.001338318,1.4246879,-0.034938537,0.8355816,-0.098863244,-1.1797872,0.5273725,0.5013811,0.050447155,-0.8257569,-0.572093,0.104434125
p10_p15_i4_i4_a0.25,1.2838027,0.34008285,-0.35150832,-0.6256375,0.44644904,0.007630123,-0.50380194,0.03985678,-0.3593648,-0.33687335,-0.004966449,0.018986892,-0.028733138,0.056983545,-0.61382496,-0.013923249,0.55227834,-0.14127916,0.043459535,0.20251304,-0.28952378,0.47592646,-0.009967618,-0.3416318,0.04830017,-1.5696378,-1.1772722,0.91326255,0.037932966,0.029332217,0.4627061,0.053157393
p10_p15_i4_i4_a0.5,1.1199148,0.4408164,-0.4183607,-0.7696973,0.42071384,0.009748286,-0.17531104,0.045493107,-0.4236211,-0.32207698,0.011785593,-0.0151029695,0.0024073878,0.07300973,-0.036991477,0.008245416,0.61150527,-0.10724224,0.04989478,0.315409,-0.51369774,0.051722683,0.0013677124,-0.86673856,0.021569867,-1.3794514,-1.027092,1.0785577,0.038829274,0.17547184,1.024083,0.019435406
p10_p15_i4_i4_a0.75,0.6861406,0.5307447,-0.76187277,-0.6644752,0.12853622,0.019055229,-0.18967336,0.01646449,0.045643896,-0.16858204,-0.024711033,-0.032733124,0.046364143,0.090297505,0.1626519,-0.012006502,0.026739657,-0.08608591,0.04338354,0.29343462,-0.38307685,-0.30148017,0.017680101,-1.0947021,-0.013642733,-1.4536662,-0.1722423,1.3935888,0.060927257,0.35608593,1.5560355,0.01092965
p10_p15_i5_i5_a0.25,0.2418233,0.019430786,-0.649699,0.16626507,0.22500023,0.06582056,-0.1562468,-0.104824394,0.5639925,-0.6833165,-0.045308042,-0.0033754148,0.050171584,0.109443605,-1.1130323,-0.11152912,0.38298693,-0.1008471,-0.0010128915,0.4479559,0.027376369,-1.7522192,0.04041769,-0.7519483,-0.030390754,-1.0568012,0.84435093,0.2839836,0.0019595288,0.56398416,0.47950095,0.038374048
p10_p15_i5_i5_a0.5,0.32347286,0.13903418,-1.037857,0.15778533,0.7701309,-0.008857958,0.14653689,-0.05890437,0.39784494,-0.58941215,-0.037667483,0.03076306,0.014489908,0.10097009,-1.5424707,-0.12398353,0.391777,-0.07213576,0.023550928,0.60654646,-0.40219063,-1.4329078,0.0719362,-0.57953423,-0.018539276,-0.8208388,0.70356673,-0.12002078,0.037091855,0.49023134,0.5409513,0.020467661
p10_p15_i5_i5_a0.75,0.07986659,-0.038765773,-0.94875,0.23585021,0.77323776,-0.050980806,0.22214316,-0.028018828,0.0222269,-0.4130012,-0.017699728,0.038250808,-0.03047885,0.09748988,-1.6348948,-0.08646321,0.52958304,-0.07347721,0.032786623,0.38747704,-0.8323156,-0.28141892,0.08045368,-0.16319263,-0.01540322,-1.1421087,0.29077518,-0.056928903,0.059782036,0.09504866,0.3707397,0.034550693
p10_p16_i1_i1_a0.25,0.93464947,-0.24913369,-0.5442148,-0.30560726,-0.06468018,-0.05040987,-0.07151344,-0.05347422,-0.5917511,-0.13616927,-0.07429928,0.049661785,0.03669841,0.04816806,-1.2172493,0.021973759,1.0897862,-0.0061586667,0.041197926,0.4985997,-0.65912765,0.5101013,0.033198766,-0.28423423,-0.0027845635,-0.3823473,0.6715151,0.6722806,0.016990222,-2.4281216,0.5727601,0.04985906
p10_p16_i1_i1_a0.5,1.4240253,0.30247176,-0.5427916,0.4039004,-0.31182986,-0.017970042,-0.1602626,-0.09575409,-0.59214586,-0.6576629,-0.0904083,0.03401911,0.07214369,0.06695601,-1.1589049,0.023315638,0.6146247,-0.0110241035,0.0022494458,0.3195004,-0.14107224,0.9851747,0.0037782546,-0.5615459,0.018711556,-0.7166828,1.0643625,0.6121238,0.037121493,-2.728486,0.5233204,0.03046105
p10_p16_i1_i1_a0.75,1.5788391,0.58200794,-0.59010094,0.5035775,-0.4168182,-0.018937944,-0.39542064,-0.08631638,-0.46411884,-0.71311617,-0.0844013,0.025237095,0.06331059,0.07353856,-1.1767156,0.015558854,0.10214883,-0.027798915,-0.009401318,0.27520996,0.35616836,1.3028216,-0.016450228,-0.8079249,0.0420578,-1.0228959,1.2002144,0.52104795,0.086833075,-2.8673208,0.55070454,0.027648427
p10_p16_i2_i2_a0.25,1.3124008,0.30256826,1.2621998,0.48324463,0.22672734,-0.008525198,0.23444204,-0.0017348821,0.1847252,0.60282856,0.06777997,0.025519256,-0.0771899,0.08963154,1.105921,-0.11855468,-0.30450776,-0.09836702,-0.016013797,0.34687555,-0.9653817,-1.0602026,-0.12539543,-0.5529023,0.0032858741,-0.38781255,-2.0345268,-0.12938091,0.019755572,2.8390527,0.40918094,0.091409825
p10_p16_i2_i2_a0.5,0.87288713,0.07970947,1.3225985,0.15290925,0.11182338,0.009068173,0.6031468,0.049807146,0.09614614,1.223727,0.12693204,0.012533252,-0.0503391,0.11869295,0.7008192,-0.078409284,-0.51652765,-0.09061152,0.05404064,0.23884648,-1.1976447,-0.700854,-0.094739035,-0.8180038,-0.0004218258,-0.79903287,-2.300163,0.2022207,-0.00011133868,3.4427485,0.5684464,0.07406949
p10_p16_i2_i2_a0.75,0.65689945,0.051772878,0.9699514,-0.21260075,0.03318079,0.016614523,0.28799522,0.062391173,-0.033580452,1.4155179,0.11752848,-0.022482319,0.0006584767,0.12294072,0.41976744,-0.055208765,-0.1741139,-0.09474761,0.07463173,0.11897349,-1.2266636,-0.3406987,-0.05970619,-1.0141063,0.010777004,-1.1705761,-2.281563,0.3349499,-0.017558286,3.2866385,0.6547597,0.08489536
p10_p16_i3_i3_a0.25,1.1222528,0.5010485,-0.70878744,1.0939056,-0.57853556,0.009544773,-0.3264993,-0.0018786518,-0.9927485,0.1531734,-0.045369893,-0.0016008131,-0.034383558,0.05214426,0.07328588,-0.071147,-0.51610434,-0.052053176,-0.015233271,0.35198665,-0.22185689,1.4262686,-0.062926814,0.2699323,0.03580796,-0.31617618,-0.0359212,0.26793832,0.029309236,0.7699404,-0.274621,0.08465506
p10_p16_i3_i3_a0.5,1.7773029,-0.11324586,0.02038537,1.8228751,-0.60502994,-0.018379407,-0.220539,-0.039351523,-0.66511893,-0.003936801,-0.0079176165,-0.015988547,-0.008928106,0.06312823,-0.065219164,-0.06167676,-0.5472852,-0.075680554,-0.018654115,0.29596388,-0.26814225,1.4353805,-0.07594117,0.2776409,-0.01942057,-0.79143673,0.2449172,0.33721858,0.012156629,-0.16910997,-0.37883615,0.10239452
p10_p16_i3_i3_a0.75,1.8396065,-0.6271933,0.13562575,1.7898444,-0.5104513,-0.044003703,-0.3795922,-0.052064206,-0.6046267,0.25819713,-0.00870062,-0.008874019,-0.008417615,0.05427051,-0.19364092,-0.054182086,-0.7455077,-0.086518615,-0.024031462,0.21949166,0.035659716,1.531606,-0.039846025,0.53079826,-0.061186455,-1.138548,0.5231652,0.4340249,0.03526939,-0.70269734,-0.43504298,0.1191211
p10_p16_i4_i4_a0.25,0.6880381,0.6541028,-0.71043456,-1.1159824,-0.06836487,-0.021725534,-1.0658239,-0.06342025,-0.97592914,-0.033732187,0.004767267,0.006623634,0.03361917,0.052682493,-1.2745144,-0.05519848,0.4939278,-0.050774492,0.059320673,0.4142468,-0.3323382,-0.380444,0.012110143,-1.4164124,0.07816254,-0.4743088,0.46795848,0.13073623,0.07519968,1.3408641,0.93333703,0.031017855
p10_p16_i4_i4_a0.5,0.6055705,0.6678473,-0.59943724,-1.1021845,-0.0032143742,0.0078115556,-0.530989,0.019775039,-0.65426916,-0.17368247,0.023215767,-0.023991141,0.009881068,0.057466846,-0.4301263,-0.01465224,0.19249563,-0.051845223,0.043058686,0.4142186,-0.33175218,-0.40591365,-0.003970893,-1.5708622,0.03687154,-0.81827974,0.66680866,0.5397314,0.092868395,0.87901384,1.2968777,-0.028362807
p10_p16_i4_i4_a0.75,0.3308134,0.6122355,-0.7398462,-0.86242557,-0.07103826,0.022170281,-0.3750507,0.016388925,0.20280376,-0.06395359,-0.017181914,-0.038086504,0.031364072,0.08697876,0.37410903,-0.037077148,-0.10466513,-0.05274575,0.022345783,0.33383226,-0.37079495,-0.51649487,0.011742652,-1.2476652,0.0020508748,-1.1913224,0.6865637,1.2322757,0.056941874,0.95527124,1.7725856,-0.03112432
p10_p16_i5_i5_a0.25,-1.3750494,0.8983615,0.098407865,-1.0958339,0.8319083,-0.01404758,0.46513617,-0.041508894,-0.13907272,-0.008969035,-0.09790628,0.08120288,-0.009798384,0.023487013,-0.68532574,-0.049304735,0.4412968,-0.0072784787,0.07084773,0.46788317,-0.58534485,-0.66614366,0.04810512,-0.0055855475,-0.010831289,-0.49271506,0.79975116,-0.35021648,0.037315555,0.39850065,0.37392145,0.0662274
p10_p16_i5_i5_a0.5,-0.74874914,0.485916,-0.37004897,-0.33611336,0.82035285,-0.031968117,0.70168597,-0.02340852,-0.24539892,0.0758573,-0.05620259,0.055346627,-0.012869255,0.04155594,-1.2894224,-0.07244833,0.44457805,-0.035731707,0.055092156,0.45651668,-0.8011394,0.19687328,0.04733544,0.17264102,-0.0020630136,-0.7137437,0.5328812,-0.363619,0.027097598,-0.07121921,0.35941136,0.05464442
p10_p16_i5_i5_a0.75,-0.24850976,0.049160972,-0.7112489,0.08366874,0.7059376,-0.055007517,0.6991621,-0.022700004,-0.29717296,-0.100780606,-0.025826255,0.03703935,-0.014008244,0.06559777,-1.5455284,-0.08534129,0.66370213,-0.06250563,0.040148318,0.34588695,-0.958466,0.6819137,0.056813598,0.06624653,-0.013057038,-1.1023489,0.25191027,-0.11944255,0.04532049,-0.14892416,0.31067842,0.05276261
p10_p17_i1_i1_a0.25,1.4889573,0.020211384,0.024928167,-0.34455165,-0.01608783,0.013473879,0.016789112,-0.06860737,-0.114440024,-0.5324032,-0.075167194,0.061181534,0.030238993,0.05747792,-1.2739701,-0.0535799,0.54231966,-0.053091064,-0.019782662,0.9878916,-0.22072414,-1.8789549,0.005112567,-0.69293,-0.03377958,-0.60959756,0.6305842,0.24765459,0.023417518,-2.0684931,0.3956331,-0.002670385
p10_p17_i1_i1_a0.5,1.7298524,-0.039344355,-0.17503826,0.17895558,-0.37456766,0.0031603212,-0.18563776,-0.10613333,-0.31734818,-0.7734984,-0.06193473,0.035638288,0.047570173,0.060890105,-1.4562256,-0.038627833,0.19159907,-0.038324248,-0.03379897,0.6581158,0.032065153,-0.7372142,0.0047610225,-0.81757224,-0.038541526,-0.87497413,1.1664251,0.35756746,0.04244666,-2.4696884,0.43998933,0.0036148615
p10_p17_i1_i1_a0.75,1.6498624,0.33417934,-0.50006795,0.45648548,-0.4178771,-0.011835888,-0.40816212,-0.09451853,-0.36109823,-0.72381574,-0.05924157,0.014399678,0.051550552,0.0677152,-1.3222011,-0.016515162,0.033201844,-0.055529244,-0.028179897,0.34921855,0.26399785,0.6107613,-0.007733049,-0.8861014,0.0025215284,-1.1831362,1.2883677,0.47389758,0.0801893,-2.5829175,0.474864,0.01614391
p10_p17_i2_i2_a0.25,1.514573,-0.5138702,0.18859619,0.0029795468,-0.321351,0.0055032736,-0.15056592,-0.010601057,-0.0434781,0.07839462,0.07450113,0.012530458,-0.05456578,0.12457694,-0.11073643,-0.104958065,-0.40565208,-0.12477966,0.024083,0.35928863,-0.84005755,-1.4556665,-0.06083043,-0.062376615,-0.04904244,-1.2493118,-1.6202146,0.36495405,0.01706959,2.4599223,0.15202998,0.12893873
p10_p17_i2_i2_a0.5,1.330056,-0.400544,0.42861548,-0.1580222,-0.1752649,0.012337186,0.0827817,0.026239537,0.0061561465,0.6017597,0.109759316,0.014818243,-0.043443434,0.13254341,0.034279108,-0.08580148,-0.58782053,-0.114099525,0.040100962,0.30910224,-0.94227165,-1.2071295,-0.07479164,-0.3667508,-0.02442995,-1.2222089,-1.8352739,0.41635466,0.00272822,2.9423962,0.3545556,0.12712924
p10_p17_i2_i2_a0.75,1.1371629,-0.3133161,0.79106116,-0.36865112,0.067764565,0.017074946,0.36860648,0.07081036,0.12942067,1.4526587,0.14815842,0.011685352,-0.018589884,0.13134618,0.31315446,-0.06248809,-0.5811548,-0.11317892,0.06682935,0.29514068,-1.2232356,-0.9208903,-0.072159454,-0.7618021,-0.0043071825,-1.120328,-2.2806373,0.3690079,-0.01697743,3.5775795,0.62475383,0.112652645
p10_p17_i3_i3_a0.25,-0.6099508,-0.16656096,-0.27899098,-0.061276868,-1.4408782,-0.036764003,-0.5031899,-0.112779945,-0.21367264,0.12917787,-0.07161244,-0.027160618,0.02288554,0.01429978,-0.6068883,-0.07685065,-0.8112638,0.024364755,-0.02120837,0.659064,-0.07854316,0.8205837,0.0527599,-0.47477773,-0.03956208,-0.97934157,3.0488398,0.5330597,0.06665162,1.7196847,-0.4873234,-0.012092377
p10_p17_i3_i3_a0.5,0.5343713,-0.4869945,-0.13254598,0.55222595,-1.3500679,-0.036236458,-0.716857,-0.080024585,-0.12030393,-0.0942083,-0.070469804,-0.039638445,-0.0021449588,0.020444231,-0.53895664,-0.08716481,-0.58904314,-0.030006956,-0.022512438,0.48238653,0.42751962,1.2209573,0.018890815,0.09388398,-0.05967094,-1.093819,2.079332,0.52919555,0.068462595,0.78358775,-0.49868894,0.033398427
p10_p17_i3_i3_a0.75,1.589435,-1.0175754,0.2826151,1.2488385,-0.8943428,-0.0452547,-0.674099,-0.09398976,-0.3138343,0.06817527,-0.022536455,-0.03191317,-0.0026019178,0.030009348,-0.43233806,-0.061352093,-0.6120143,-0.085629374,-0.020728603,0.31677222,0.4740668,1.5162513,-0.0014531445,0.6140976,-0.10007019,-1.2397753,1.1261542,0.54707783,0.06107261,-0.25970358,-0.51652205,0.09342023
p10_p17_i4_i4_a0.25,0.942374,-0.031446055,-0.30710474,0.1959331,-1.1311402,-0.0021631122,-0.5909656,-0.054120418,-1.0304182,0.1603533,-0.018856956,-0.046173025,0.00864898,0.06312159,-0.69466275,-0.023073252,-0.80298436,-0.026430018,-0.012282411,0.6283453,-0.18217635,-1.6085098,0.055006146,-1.6965216,-0.09542841,-0.9615251,1.8614268,1.05207,0.0775165,-0.9102104,1.175207,-0.01847671
p10_p17_i4_i4_a0.5,0.65480554,0.1583598,-0.3542691,-0.11210388,-0.6919277,0.017777964,-0.52766705,-0.044689063,-0.7068765,0.08455913,-0.027468475,-0.07893051,0.011414938,0.08176318,0.11144036,-0.0071816463,-0.57698417,-0.05922193,-0.0055232886,0.45068187,-0.2587614,-1.423346,0.055546552,-1.661506,-0.09568044,-1.2436216,1.2154791,1.4211016,0.06301267,-0.57016236,1.4719272,-0.04313148
p10_p17_i4_i4_a0.75,0.41898632,0.34180918,-0.49414065,-0.39220864,-0.31670845,0.047500223,-0.45629594,-0.03504049,0.0702357,0.023471147,-0.045395836,-0.08479483,0.02163734,0.08926077,0.2941959,-0.029155597,-0.25356832,-0.081798956,0.016770724,0.3039224,-0.21045592,-0.9618258,0.058181874,-1.3532249,-0.062738,-1.4732473,0.8789813,1.5497141,0.059732355,0.06515822,1.6243049,-0.035331402
p10_p17_i5_i5_a0.25,0.097019,-0.852603,-0.38770157,0.35618016,-0.065806724,-0.0042879563,-0.30577505,-0.09737337,0.27168158,-0.9391356,-0.070648775,0.00038071256,0.054913297,0.11859715,-1.3926628,-0.05749779,0.543736,-0.049597003,0.0085261315,0.82181925,0.6783632,-1.9758534,0.06091541,0.19613074,-0.014578091,-0.9071579,0.8945023,0.03283441,-0.05161832,-0.03663131,0.7424131,0.052433185
p10_p17_i5_i5_a0.5,0.20699902,-0.30841112,-0.7682508,0.37591484,0.5267174,-0.05610624,-0.2327952,-0.07508539,0.2781898,-0.6212269,-0.028815065,0.014069286,0.004865018,0.09794496,-1.6417437,-0.059425283,0.8126973,-0.08126253,0.015931208,0.62196666,-0.08642608,-1.048296,0.09140403,-0.18533717,-0.025356438,-1.0979316,0.62892795,-0.027698308,0.03803527,0.031359397,0.5392326,0.03227959
p10_p17_i5_i5_a0.75,0.0071602315,-0.19372399,-0.72101784,0.41520527,0.7398923,-0.05472798,0.23147847,-0.04064542,-0.15955776,-0.5427911,-0.018257745,0.025577899,-0.019357651,0.098411754,-1.6772428,-0.04779565,0.80889094,-0.059069373,0.03373596,0.44493753,-0.5957598,-0.10613045,0.078292914,-0.097769514,-0.009411651,-1.2095376,0.36968902,-0.0074709654,0.052944094,-0.20239641,0.40854132,0.03939403
p10_p18_i1_i1_a0.25,1.4412214,-0.043256447,-0.12614314,-0.25551796,0.21036303,0.019714441,0.08862245,-0.07513365,-0.22786462,-0.7370613,-0.07823017,0.0681435,0.037729863,0.053614553,-1.3981755,-0.02351287,0.5580995,-0.039744474,-0.025959475,0.95560366,-0.08182165,-1.3025258,-0.00022365898,-0.548241,-0.02016731,-0.59515935,0.93524355,0.16717646,0.016223595,-2.2169938,0.41446447,-0.0031410707
p10_p18_i1_i1_a0.5,1.7006173,0.095091745,-0.367204,0.24232498,-0.1928127,0.003858544,-0.19801143,-0.10294916,-0.34541214,-0.91547453,-0.06635103,0.043652184,0.05774696,0.064051524,-1.4545362,-0.016596895,0.13759923,-0.036192212,-0.030769335,0.6426056,0.017726123,-0.10343,-0.015123384,-0.68994385,-0.0032697604,-0.8244275,1.3018261,0.2711804,0.05450771,-2.6153963,0.475291,0.007609036
p10_p18_i1_i1_a0.75,1.6428604,0.43932647,-0.5863516,0.460493,-0.3619292,-0.015015826,-0.34415716,-0.08267881,-0.33819294,-0.72232795,-0.070145644,0.024599068,0.05726509,0.074886054,-1.2954105,-0.0060341675,-0.047855735,-0.047458794,-0.028112797,0.34187704,0.2871177,0.82587874,-0.020736186,-0.83365405,0.023100853,-1.1582898,1.3025998,0.42996287,0.08528484,-2.598124,0.4913115,0.021779682
p10_p18_i2_i2_a0.25,1.2631799,-0.32945228,0.31787843,-0.23587394,-0.3627395,0.0022265753,-0.40998647,-0.036485486,0.11047593,0.4319647,0.07360547,-0.03449751,-0.025015678,0.09283352,-0.21347699,-0.09346832,-0.46183273,-0.14821756,0.030299405,0.11240691,-0.64082843,-1.4359035,-0.026791105,-0.32737103,-0.06899963,-1.5060494,-1.3221965,0.54899365,0.03214734,2.4126713,0.15132503,0.09977019
p10_p18_i2_i2_a0.5,1.1988691,-0.24049546,0.48787895,-0.47003558,-0.26500857,0.009593745,-0.081928395,0.013881948,0.025624365,0.9141177,0.100599565,-0.03162048,-0.02320771,0.10505368,-0.050266385,-0.073709995,-0.56806135,-0.13148329,0.04487721,0.1111964,-0.8805128,-1.2294962,-0.034499727,-0.5368142,-0.04574584,-1.386808,-1.6686462,0.5237302,0.0024536783,2.800887,0.33603168,0.11254799
p10_p18_i2_i2_a0.75,1.0135759,-0.18227081,0.79334915,-0.54517066,-0.0012968034,0.018214945,0.3873112,0.07332213,0.087127775,1.591018,0.1413357,-0.014620624,-0.008810452,0.12707898,0.24231327,-0.05007855,-0.5854155,-0.113961965,0.06889812,0.16621876,-1.2135484,-0.965295,-0.05531501,-0.8105101,-0.012431372,-1.2042499,-2.160845,0.44540784,-0.024102809,3.4577167,0.59688216,0.105865575
p10_p18_i3_i3_a0.25,0.01712817,0.08116132,0.2404257,0.058655918,-1.2681704,-0.04751979,-0.509849,-0.1060693,-0.35283226,0.101344496,-0.0722763,-0.029218547,-0.011896278,0.0018297993,-0.5035403,-0.075341225,-0.6830188,0.023474377,-0.010094633,0.6767412,0.29291216,0.7780326,0.022718962,-0.2784708,-0.053585004,-0.8615296,2.7626455,0.30355594,0.08529881,0.8228663,-0.4663952,-0.0073899245
p10_p18_i3_i3_a0.5,1.2230784,-0.489958,0.47024837,0.8706194,-1.2979493,-0.056297146,-0.5214922,-0.08892447,-0.5058277,-0.06327908,-0.04468484,-0.036662955,-0.0024520531,0.0117935445,-0.33477965,-0.08373918,-0.6738895,-0.03160889,-0.025356619,0.5927121,0.5802288,1.281735,-0.023698276,0.13874033,-0.083644085,-0.89598215,1.7941153,0.35814506,0.07541364,0.13623615,-0.50135666,0.0509986
p10_p18_i3_i3_a0.75,1.7160552,-0.9574531,0.3878477,1.4680617,-0.77900517,-0.05212847,-0.60060275,-0.09061304,-0.46681517,0.15939033,-0.011824258,-0.022063045,-0.009723754,0.033377357,-0.34228778,-0.060534466,-0.74853504,-0.08498573,-0.024931977,0.30384654,0.3407827,1.4857194,-0.016241698,0.6614522,-0.10077777,-1.2125095,0.9616451,0.47082016,0.060280234,-0.5743005,-0.5013928,0.10016124
p10_p18_i4_i4_a0.25,1.075261,-0.14332823,-0.19676019,0.37386987,-0.9062254,-0.011352614,-0.63246334,-0.03243693,-1.021871,0.27092445,-0.024164192,-0.03303077,0.009880679,0.045561504,-0.76753855,-0.022897534,-0.7370933,-0.04097449,-0.01749387,0.66597384,-0.24175578,-1.5775819,0.062005438,-1.6413554,-0.09028292,-0.92162406,1.5438497,0.8543128,0.081641294,-0.8784844,1.1959139,-0.01478204
p10_p18_i4_i4_a0.5,0.7384171,0.16592325,-0.31647474,-0.19054192,-0.5026175,0.01469861,-0.49318072,-0.027724307,-0.62341946,0.13212071,-0.023090802,-0.069348134,0.016876843,0.07307796,0.07562846,-0.0075602653,-0.46996793,-0.06626877,-0.007595299,0.44178027,-0.31438988,-1.354634,0.051690087,-1.5722849,-0.08696625,-1.214119,1.0120497,1.2360287,0.06757712,-0.41485184,1.4398534,-0.039744224
p10_p18_i4_i4_a0.75,0.43604577,0.35897332,-0.4836703,-0.4038033,-0.2498845,0.042468145,-0.43637612,-0.030554764,0.13625363,0.03590864,-0.04361261,-0.07932925,0.02127904,0.08246845,0.2900315,-0.033832964,-0.24691913,-0.08100383,0.011618172,0.29403448,-0.25119004,-0.9229347,0.05212208,-1.2722455,-0.059009477,-1.4566499,0.78389764,1.4501314,0.059864998,0.15136774,1.6205935,-0.036138866
p10_p18_i5_i5_a0.25,-0.36075673,-0.6747701,-0.28640231,-0.0606599,-0.2715523,0.0068366807,-0.43449903,-0.0903036,0.34209725,-0.5165952,-0.034860034,-0.040473763,0.03257573,0.0631247,-0.65244895,-0.08998741,0.36551115,-0.061431844,0.0353019,0.6377103,0.6975418,-1.9092624,0.06296401,0.33685634,-0.056740504,-0.93714345,1.092962,0.07945034,-0.04126042,0.73834175,0.58015484,0.04704808
p10_p18_i5_i5_a0.5,-0.27288458,-0.3063466,-0.71970713,0.030100137,0.2033672,-0.03689803,-0.26545653,-0.06645605,0.20054725,-0.3154522,-0.017234456,-0.0066341693,0.00414622,0.06636603,-1.1720626,-0.07078613,0.48916933,-0.07901803,0.03715547,0.53892845,-0.05479881,-1.1096003,0.07271797,0.091936834,-0.031215671,-1.0473311,0.64445376,-0.017447561,0.0099891005,0.3739088,0.460244,0.054706883
p10_p18_i5_i5_a0.75,-0.21035686,-0.16396903,-0.84495056,0.31868276,0.59310603,-0.05728337,0.20344469,-0.03181893,-0.1696761,-0.3702308,-0.009385022,0.02173134,-0.02471941,0.08919948,-1.519708,-0.053043067,0.62301815,-0.06419714,0.03871339,0.4110372,-0.58860666,-0.15710402,0.07424091,0.054612454,-0.010900982,-1.1859905,0.27862284,-0.01259622,0.041909236,0.009647647,0.37146074,0.0480091
p10_p19_i1_i1_a0.25,1.2494621,0.26995754,0.17304909,-0.259078,0.30724397,0.041253097,-0.4471795,-0.069137074,-0.33013827,-0.819397,0.0002638325,0.018306341,-0.017494578,-0.0069806236,0.3317904,-0.0483893,1.3213834,-0.09533642,0.047630683,0.70046896,-0.30542928,-0.06394324,-0.0019971952,0.35736835,0.02792827,-1.0773183,-0.041051257,0.36201614,-0.013277935,-1.5468981,0.3526814,0.026027443
p10_p19_i1_i1_a0.5,1.4832982,0.36073938,0.0072781444,0.32670662,0.088005856,0.027664766,-0.3491214,-0.0562479,-0.30752558,-0.9429899,-0.06294436,0.047269665,0.03630762,0.013018681,-0.29779875,-0.027644467,0.9006933,-0.04780323,-0.027088353,0.5984741,0.2548452,0.6953131,-0.01351223,-0.11883579,0.040404323,-1.0176946,0.5805261,0.29511645,0.022725686,-1.9928657,0.45051634,0.002477767
p10_p19_i1_i1_a0.75,1.4856519,0.47628677,-0.4370464,0.41068706,-0.057241954,0.00046383403,-0.38926423,-0.06504935,-0.28547153,-0.8838975,-0.058973305,0.03718452,0.053351652,0.047468826,-0.7859495,-0.0114434855,0.33542418,-0.060808264,-0.03356304,0.32335407,0.41705567,1.1281587,-0.012612579,-0.51148725,0.043223154,-1.2342333,1.0027803,0.40918326,0.057900555,-2.1726065,0.44718796,0.01665834
p10_p19_i2_i2_a0.25,1.8275275,0.19105643,1.5230658,-0.61210555,-0.004546657,-0.022960095,0.19435495,-0.017206287,0.29139826,1.2046676,0.08652721,0.044923116,-0.11630316,0.025762193,0.40634692,-0.058732774,0.6843492,-0.12531722,0.07563164,0.54002374,-1.2235854,-0.20930034,-0.0511989,-0.19696796,0.015490287,-1.1482346,-1.904826,0.16080782,0.0005657347,1.1255364,-0.18684404,0.115666896
p10_p19_i2_i2_a0.5,1.5735773,0.22454247,1.5578161,-0.62940717,0.035744548,0.012958838,0.5034079,0.049662456,0.30169788,1.6648946,0.129563,0.045001518,-0.068904296,0.07782969,0.48476702,-0.05258409,0.36501724,-0.115162954,0.07953615,0.42793125,-1.549799,-0.52742356,-0.06052704,-0.48990408,0.037242472,-1.0350162,-2.320783,0.12851557,-0.03440986,2.4905097,0.3164404,0.11274924
p10_p19_i2_i2_a0.75,1.216537,0.018372014,1.64028,-0.5489956,0.20076072,0.031944014,0.59433764,0.09797801,0.38844654,1.9894124,0.17726505,0.04546769,-0.028183274,0.1187623,0.5925893,-0.044238463,-0.11211452,-0.11052843,0.07993191,0.36611438,-1.7623441,-0.38012153,-0.06761808,-0.8509293,0.027612094,-0.97404474,-2.729812,0.21335547,-0.026003225,3.531167,0.67248213,0.0862866
p10_p19_i3_i3_a0.25,0.7290663,-0.09261055,-0.18769583,1.1594249,-0.68330956,-0.006002534,-0.5335909,-0.03521316,-0.38340816,-0.22640805,-0.034688342,-0.025016773,-0.03291305,0.06809339,-0.83188903,-0.06120876,-0.37618724,-0.06035917,0.0016878014,0.64435595,-0.3535233,1.5651073,-0.027602324,0.5388822,0.018491816,-1.1811029,0.62756234,1.0494261,0.057937376,1.4113499,-0.5953494,0.07738618
p10_p19_i3_i3_a0.5,1.4867074,-0.37696683,0.38139084,1.4346614,-0.7061216,-0.008130748,-0.5023806,-0.0607558,-0.3127004,-0.09351887,-0.013907583,-0.03278303,-0.033342227,0.0471131,-0.56121993,-0.06717939,-0.55881286,-0.09845043,-0.009580076,0.4671088,-0.25392866,1.5023777,-0.029070629,0.7376261,-0.05323751,-1.2258334,0.4484045,0.8377067,0.047050454,0.4628753,-0.5892725,0.090757005
p10_p19_i3_i3_a0.75,1.7309477,-0.7863944,0.3112624,1.5545287,-0.43749726,-0.03196843,-0.5816123,-0.08575055,-0.43514448,0.17535613,-0.001974864,-0.014196983,-0.024569187,0.05302547,-0.41623205,-0.047711845,-0.78191364,-0.10658734,-0.02138471,0.26171112,0.025938198,1.5099752,-0.009810438,0.95379573,-0.08995979,-1.3564124,0.47610134,0.72897416,0.055734053,-0.28562087,-0.567298,0.107326806
p10_p19_i4_i4_a0.25,0.8179197,-0.052367225,0.018455818,-0.16836385,-0.56112295,0.010603412,-0.42730764,-0.083081216,-0.23621093,0.003514627,-0.019584985,-0.045830805,-0.000782066,0.062361035,-1.2781335,-0.075443834,0.034654737,-0.09966162,0.009632871,0.8397135,-0.16931325,-2.0831048,0.051351275,-0.8533237,-0.100995146,-0.99245167,0.6071735,0.84515,0.0434423,-0.066572905,0.8761727,-0.013911392
p10_p19_i4_i4_a0.5,0.7872933,0.03041479,-0.3871872,-0.2744499,-0.23996125,0.026059832,-0.35765472,-0.019918855,-0.115822464,0.11234073,-0.019609064,-0.053902246,0.0069199717,0.05829585,-0.5379549,-0.047133062,-0.16364202,-0.107368834,-0.017766882,0.63316196,-0.35030472,-1.5425746,0.04456283,-1.1870837,-0.086443715,-1.1935067,0.4271436,1.0321847,0.068135954,0.18137278,1.2190468,-0.044565927
p10_p19_i4_i4_a0.75,0.50232714,0.26919907,-0.68072426,-0.50552726,-0.09712426,0.050187312,-0.37085268,-0.02638464,0.23695317,0.07559188,-0.03410891,-0.07965683,0.012484649,0.07497297,0.2002176,-0.04052014,-0.07392493,-0.107136324,0.02011844,0.38960606,-0.3474316,-1.1189814,0.060586818,-1.0909556,-0.06330359,-1.4481875,0.46378157,1.4740766,0.046938695,0.3714838,1.5267683,-0.028398916
p10_p19_i5_i5_a0.25,-0.20996377,0.21320412,-0.90912795,-0.31991163,0.2537328,0.01483666,0.11304346,-0.04247769,0.5682019,-0.48190016,0.0064123813,-0.0120602455,-0.04402847,0.099328205,-1.0760691,-0.1447911,0.33803678,-0.07834588,0.03176466,0.63855916,-0.75496644,-1.419853,0.061638482,-0.3798798,-0.05687548,-1.0462143,0.3433273,0.027574688,0.04866159,1.8967183,0.37133926,-0.024528041
p10_p19_i5_i5_a0.5,-0.068039194,0.18896264,-1.2293694,-0.12241292,0.58802724,-0.030506453,0.024848115,-0.024247222,0.40128836,-0.5148138,0.0035167802,0.010140206,-0.0549781,0.10204002,-1.424777,-0.120783076,0.45943043,-0.08859602,0.038025536,0.5668375,-0.897747,-0.89128035,0.067025654,-0.30890188,-0.032187387,-1.0801933,0.23719554,-0.0857887,0.06185533,1.1446497,0.3801666,-0.004250182
p10_p19_i5_i5_a0.75,-0.04979889,-0.041551575,-1.0846109,0.16891986,0.7996209,-0.05593963,0.38692817,-0.009711586,-0.05897224,-0.4677791,-0.010580894,0.039669957,-0.038724918,0.09077069,-1.6191158,-0.10042537,0.5694063,-0.07470882,0.036151305,0.45763654,-0.9719828,0.0627763,0.07637964,-0.021973893,-0.00041452516,-1.1473303,0.12413272,-0.11915359,0.056001335,0.36517227,0.35344267,0.029950798
p10_p1_i1_i1_a0.25,1.4863772,0.31491038,-0.17992191,-0.14183572,-0.33766532,0.012305776,-0.6567865,-0.10106842,-0.32825318,-0.94615877,-0.11918694,0.034597963,0.058865175,0.023706034,-0.97647285,-0.014425947,0.52737194,-0.02398325,-0.022278277,0.7807619,0.1121562,-0.087924555,-0.026158111,-0.62848014,-0.0031885821,-0.46310616,1.0741947,0.5150406,0.061160803,-2.3034992,0.57508934,-0.022430759
p10_p1_i1_i1_a0.5,1.5434893,0.46314448,-0.46376893,0.38368717,-0.4385416,-0.0047344174,-0.5054465,-0.097376555,-0.33699644,-0.8411858,-0.090285875,0.022196662,0.06383874,0.05167152,-1.039487,-0.006323887,0.2230167,-0.03193137,-0.029497853,0.4449957,0.09151208,0.7332994,-0.022082431,-0.66827494,0.021767724,-0.8623073,1.1970575,0.451733,0.06668272,-2.419437,0.50815374,0.0011083614
p10_p1_i1_i1_a0.75,1.5392399,0.619578,-0.6571791,0.42749587,-0.42543092,-0.016255373,-0.58080757,-0.07531023,-0.39772508,-0.7244787,-0.08157271,0.019410085,0.054779053,0.0634875,-1.1168643,0.0030651765,-0.01436457,-0.047835927,-0.021393785,0.26816267,0.39451963,1.1585107,-0.021449788,-0.7830414,0.039004296,-1.1653413,1.2007289,0.4966786,0.09575955,-2.5509188,0.49706548,0.02311237
p10_p1_i2_i2_a0.25,1.5330498,-0.23881818,1.556216,0.042031676,0.04175274,0.03314294,0.97809553,0.050358318,0.3997365,0.89550674,0.11681607,0.03136052,-0.10792146,0.1415461,0.58750147,-0.091553606,0.066642374,-0.10908463,0.045442425,0.6852285,-1.5494611,-1.4518523,-0.09114759,-0.08789329,-0.0006956337,-0.47387087,-2.3020985,0.02921027,-0.016651653,3.0951638,0.37343395,0.11282106
p10_p1_i2_i2_a0.5,1.1987603,-0.27877527,1.6007795,-0.14301375,0.12603748,0.027920969,1.0750161,0.0811632,0.4089071,1.6170638,0.17139405,0.03895129,-0.06978898,0.13957115,0.59549767,-0.056427125,-0.22854403,-0.10122643,0.08252566,0.48772007,-1.6391745,-1.051456,-0.08718264,-0.5154776,-0.0031276583,-0.67890346,-2.5928378,0.20558628,-0.017924124,3.7023783,0.59529644,0.09382529
p10_p1_i2_i2_a0.75,0.81644046,-0.14039893,1.1049352,-0.34279084,0.15652668,0.018085193,0.4093615,0.07060003,0.113018185,1.6776227,0.14491153,0.0006831633,-0.0070404597,0.12002273,0.38589942,-0.04450924,-0.03341621,-0.10225886,0.08450374,0.21105057,-1.4070435,-0.4686163,-0.0654204,-0.8470824,0.005948971,-1.1061727,-2.466103,0.33891913,-0.024478458,3.3933427,0.67260337,0.09719993
p10_p1_i3_i3_a0.25,1.5984893,0.02425614,0.5022901,1.4372936,-0.846876,-0.012324326,-0.30334646,-0.041731667,-0.5341228,-0.2150366,-0.0029404461,-0.00952181,-0.03616169,0.057889923,-0.021371603,-0.07731367,-0.37269583,-0.07118898,-0.011622358,0.8549169,0.0554941,1.2199111,-0.12041957,0.41976085,-0.027925428,-0.530192,0.044934724,0.54325086,0.07937244,1.7079365,-0.6304198,0.09533816
p10_p1_i3_i3_a0.5,1.885303,-0.6249134,0.6010301,1.7214289,-0.89869934,-0.02093015,-0.36024255,-0.042714957,-0.4235588,-0.1068812,0.0080723055,-0.0176594,-0.031690314,0.050121907,-0.12795034,-0.08066923,-0.7364198,-0.0975092,-0.026961343,0.4641232,-0.28011817,1.351367,-0.08390249,0.66005635,-0.06223268,-0.96329445,0.11407289,0.4482929,0.038583454,0.20218356,-0.5395515,0.1068192
p10_p1_i3_i3_a0.75,1.8448782,-0.88925654,0.37143752,1.7369164,-0.518604,-0.040988497,-0.4824963,-0.07659267,-0.49951047,0.16055982,0.0020822547,-0.010173589,-0.019621838,0.053936146,-0.21985656,-0.05588909,-0.8384148,-0.09510785,-0.027863564,0.26243353,0.040917993,1.4894993,-0.030528491,0.87688696,-0.08681247,-1.2429085,0.44789964,0.5468862,0.053463213,-0.4438073,-0.53013825,0.111830965
p10_p1_i4_i4_a0.25,0.7615788,0.17053539,-0.24708942,-0.5422309,-0.14157565,0.00072111934,-0.0777148,-0.014123059,-0.22132215,0.041557025,-0.013833904,0.022670977,0.041646067,0.07748781,-0.55649656,-0.016567983,0.16150707,-0.055194087,0.008139816,0.6888886,-0.13585863,-1.6551571,0.013541099,-0.8532846,-0.017812047,-0.6640422,0.33896443,0.7843784,0.013160576,-0.14472175,0.99706215,0.0085808765
p10_p1_i4_i4_a0.5,0.6571924,0.2530748,-0.5975547,-0.5656499,0.04954253,0.015811373,-0.13483745,0.0047704205,0.087691516,0.020294143,-0.0116726905,-0.021312779,0.014634444,0.054626495,0.20825708,-0.031244416,-0.16136876,-0.08052619,-0.015930971,0.5204238,-0.31945503,-1.2160776,0.022290066,-1.0298206,-0.029574275,-1.0077502,0.42364508,0.9853709,0.03987339,0.3398468,1.3363761,-0.047280196
p10_p1_i4_i4_a0.75,0.36349934,0.4153325,-0.68023574,-0.55067235,-0.052430652,0.03866853,-0.34395796,-0.015635196,0.26605955,-0.0411438,-0.042135604,-0.057220943,0.027177218,0.08180326,0.3065887,-0.03716126,-0.10436913,-0.08240384,0.0115255965,0.31147128,-0.26582527,-0.826625,0.040796965,-1.0930953,-0.036467694,-1.3738769,0.51096624,1.3803567,0.04813823,0.45310822,1.6123588,-0.030193172
p10_p1_i5_i5_a0.25,-0.21105766,0.08821203,-1.259903,-0.43726373,0.5867164,0.000046283007,0.12994671,-0.021682972,0.37380502,-0.74591905,-0.063291475,0.062228184,0.00302822,0.09298353,-0.9238543,-0.080969654,0.43792564,-0.077638336,0.027639618,1.024801,-0.9421528,-1.6648641,0.056508593,-0.06552601,0.0075844917,-0.22912085,0.13439436,-0.08186135,-0.0018822411,0.07378388,0.7569787,0.015325004
p10_p1_i5_i5_a0.5,-0.056311876,0.0076247454,-0.9975586,0.15474978,0.70146185,-0.04045453,0.29094866,-0.03288428,-0.008293688,-0.41684225,-0.04037054,0.047516033,-0.039808802,0.088173285,-1.4745586,-0.08907665,0.44010544,-0.06820776,0.038919985,0.6493284,-0.95681006,-0.6148586,0.083054475,0.029323205,-0.018134587,-0.708521,0.20047632,-0.16237363,0.035177678,-0.1600281,0.50405157,0.01578743
p10_p1_i5_i5_a0.75,-0.1071724,-0.07447852,-0.84491885,0.22771361,0.59656966,-0.0575141,0.41540986,-0.016835473,-0.12957397,-0.27636653,-0.021937944,0.036088724,-0.027029026,0.08752012,-1.5140812,-0.075304136,0.59315604,-0.07408171,0.030404162,0.3418489,-0.977418,0.4013607,0.06672665,-0.06762521,-0.0112677235,-1.2128276,0.16422138,0.020261705,0.057942204,-0.06903355,0.3266394,0.043694153
p10_p20_i1_i1_a0.25,2.2204623,0.6420731,-0.5513073,-0.7556051,-0.20076808,0.06644413,-0.6162081,0.0104117,-0.14781007,-0.75762314,0.005661795,0.018066846,0.0075623468,0.06890792,-0.734955,-0.07226214,0.82532763,-0.0967211,0.0061267097,0.6306967,-0.5651704,-0.20974064,-0.042006783,-0.2318228,0.024459265,-0.86003536,0.21342169,0.4938768,0.025783576,0.65076566,0.52573127,0.015109347
p10_p20_i1_i1_a0.5,1.9777987,0.3943373,-0.46937093,0.10707781,-0.046391785,0.022384442,-0.6462896,-0.047986414,-0.408615,-0.88723683,-0.011337797,0.00933743,0.0479563,0.054613434,-0.90966237,-0.037131056,0.64984995,-0.09591461,-0.028903568,0.3950374,-0.121442884,0.8308556,-0.025340637,-0.59102124,0.034942545,-1.1274017,0.90690076,0.5493522,0.03294151,-0.98334384,0.45299208,0.010053545
p10_p20_i1_i1_a0.75,1.7601357,0.4934643,-0.6853633,0.3480744,-0.1790614,-0.0026383288,-0.6502129,-0.055819042,-0.35832754,-0.7078992,-0.04572352,0.01901827,0.054472562,0.06586005,-1.0092696,-0.020734489,0.13997766,-0.088248156,-0.028476002,0.2430206,0.27127004,1.1752656,-0.024040198,-0.72015744,0.042619046,-1.2795252,1.1001714,0.5115466,0.07489549,-1.9704052,0.45436126,0.027552068
p10_p20_i2_i2_a0.25,2.2106473,-0.04808615,0.6493466,-0.78160036,-0.34271333,0.08363515,0.8228298,0.092815,0.26523635,0.83407307,0.15199398,0.022609051,-0.064220876,0.17901786,0.15591943,-0.1174943,-0.35677007,-0.1341801,0.06600612,0.4808306,-1.6162322,-1.7654817,-0.063046984,-0.5290363,-0.028274126,-0.8582051,-2.0503838,0.48438826,0.007273878,3.5175307,0.55687416,0.08661698
p10_p20_i2_i2_a0.5,1.7511367,-0.011199579,0.82875097,-0.81682396,-0.03374937,0.074381806,0.89347273,0.105787665,0.20864108,1.2819252,0.17796099,0.010587878,-0.04802622,0.168533,0.3187359,-0.08598357,-0.503487,-0.13067342,0.0831089,0.37052518,-1.6560943,-1.4463267,-0.051668093,-0.8616254,-0.008044777,-0.95309573,-2.4320822,0.54202116,-0.009845072,3.842884,0.70108956,0.08003772
p10_p20_i2_i2_a0.75,1.2326248,0.015945718,0.7422584,-0.671564,0.13718125,0.041755535,0.43714935,0.098178074,0.060628384,1.6055367,0.15163425,-0.009382085,-0.0033701574,0.12734973,0.28040534,-0.055044655,-0.34992388,-0.12578267,0.084115565,0.191737,-1.4859631,-0.7741004,-0.04332854,-0.9761587,0.008460754,-1.191889,-2.4085717,0.5331318,-0.023250042,3.5365484,0.70423114,0.0964109
p10_p20_i3_i3_a0.25,2.387017,-0.2951671,0.47990623,1.336017,-0.7465713,0.020479135,-0.11634275,0.04532942,0.047335893,-0.19942378,0.020369627,0.016784158,-0.0538554,0.09061192,0.13381803,-0.096938886,-0.669387,-0.105497874,-0.0320218,0.6828496,-0.8235956,1.502943,-0.115504734,0.7657354,0.013616967,-0.7343662,-0.5191449,0.5058601,0.049778447,1.6235509,-0.7758497,0.09305794
p10_p20_i3_i3_a0.5,2.1482,-0.5124825,0.45613286,1.704403,-0.71129054,-0.0103715975,-0.29756266,-0.036362886,-0.21248639,-0.14164707,0.012868706,-0.012521257,-0.04385035,0.06712839,-0.02968818,-0.079335324,-0.74165034,-0.10094956,-0.036062613,0.38722366,-0.6119508,1.4909704,-0.0762312,0.92228985,-0.052783895,-1.079824,-0.11162637,0.5252726,0.053414136,0.5012941,-0.65900785,0.09116403
p10_p20_i3_i3_a0.75,1.9379578,-0.8215844,0.32761708,1.7320615,-0.44194475,-0.03698401,-0.43157858,-0.07571232,-0.39681748,0.19113572,0.009415198,-0.008743623,-0.028980162,0.061517794,-0.17158452,-0.05312968,-0.88571584,-0.09491433,-0.030080566,0.22460985,-0.09766999,1.5601213,-0.026486007,1.0062143,-0.086259924,-1.2947657,0.3568788,0.60029167,0.06300195,-0.24768995,-0.5940962,0.1046727
p10_p20_i4_i4_a0.25,1.590075,0.543437,-0.12937728,-1.1126677,0.3475278,0.035668984,-0.47161686,0.06772491,-0.0842455,0.2428996,0.054701343,-0.004900782,0.0052885124,0.082321346,-0.34193683,-0.060250495,0.2790918,-0.10937237,0.048723407,0.46845573,-0.72243327,-0.93783444,-0.019879187,-0.69731396,0.01417271,-0.98610175,-0.85787874,0.75041664,0.030426044,1.8781302,0.9450229,0.06018707
p10_p20_i4_i4_a0.5,1.0718536,0.5269973,-0.41055414,-0.9700484,0.23862156,0.02939993,-0.47305143,0.03959867,-0.18204626,0.09524436,0.050753422,-0.04631409,0.0135238785,0.082119614,0.1275003,-0.038021047,0.101567686,-0.10377298,0.058736436,0.37192464,-0.6166207,-0.759314,-0.00033892877,-1.032832,0.00057901815,-1.2193885,-0.38347214,1.136203,0.030562393,1.2484783,1.3130236,0.024398342
p10_p20_i4_i4_a0.75,0.5775856,0.4762421,-0.7109002,-0.54346395,0.13672712,0.040951237,-0.38290414,0.009955816,0.38439837,0.0557417,-0.018874545,-0.046863202,0.034426164,0.08777842,0.2608794,-0.04838565,-0.07938334,-0.09164118,0.03246862,0.3051836,-0.35695368,-0.6223304,0.02522183,-1.0516337,-0.014766859,-1.4233818,0.20549841,1.4559321,0.04685944,0.93942064,1.687016,-0.00123912
p10_p20_i5_i5_a0.25,1.8571494,-0.115982875,0.07328619,-0.6945293,0.56708497,0.031050226,0.2930267,0.05154761,0.6737902,-0.49323428,0.0662546,-0.007193802,0.006475216,0.12009178,-0.38609594,-0.12962899,1.1702172,-0.1547237,0.047354102,0.8132544,-1.3658199,-2.4053879,0.0036539752,-0.075911,-0.02863406,-0.6390713,-1.0741279,-0.6284131,0.033976816,2.1278825,0.8705395,0.04656224
p10_p20_i5_i5_a0.5,1.3202512,-0.04971935,-0.6066719,-0.21247725,1.174289,-0.0080294665,0.14447717,0.015403179,0.35838363,-0.5767794,0.010597274,0.014545388,-0.010036417,0.09698756,-1.0586237,-0.1155428,1.1661735,-0.12779477,0.052671798,0.68873435,-1.3913007,-1.6318166,0.032361753,-0.19393942,-0.012198902,-0.78629005,-0.6497673,-0.5769924,0.04657869,1.123071,0.6621478,0.04426864
p10_p20_i5_i5_a0.75,0.35607123,-0.10133831,-0.91947997,0.15848505,0.81570095,-0.049702972,0.14075701,-0.0009638341,-0.055862248,-0.36680296,0.009329822,0.033391804,-0.030768555,0.09407316,-1.3855628,-0.061689075,0.7110027,-0.0912463,0.036017302,0.35582364,-1.1238563,-0.30515403,0.04343068,-0.14297651,0.017386205,-1.2395258,-0.15560555,-0.163484,0.056116678,0.3768594,0.3679548,0.055651616
p10_p21_i1_i1_a0.25,1.6370236,0.5326211,-0.22042821,0.19926828,-0.20186833,0.0054081995,-0.4141027,-0.09704284,-0.31719893,-1.1382277,-0.14957856,0.04534392,0.0716408,0.031816766,-0.6442692,0.017717976,0.74920535,-0.024569318,-0.04150489,0.57756096,-0.0035257041,1.1088831,-0.03733892,-0.3796152,0.047893938,-0.23429906,0.90932965,0.4518058,0.06953325,-2.0498683,0.5845509,-0.010057609
p10_p21_i1_i1_a0.5,1.6084322,0.5411931,-0.5198307,0.4882547,-0.3386338,-0.0011262782,-0.44261608,-0.08999652,-0.37468228,-0.8890784,-0.10833168,0.030682426,0.07235429,0.051297635,-0.87316954,0.021330558,0.33811778,-0.030225048,-0.025037212,0.33106816,0.08936034,1.1886463,-0.034168184,-0.4909341,0.05571993,-0.70986867,1.0102322,0.4158061,0.056341395,-2.349145,0.4895913,0.01782002
p10_p21_i1_i1_a0.75,1.6055138,0.6633032,-0.61537254,0.43635383,-0.37029174,-0.014323454,-0.56522554,-0.06667635,-0.42228934,-0.7211958,-0.08321425,0.020674102,0.051473927,0.06343675,-1.0733382,0.011999389,0.0037222505,-0.048039652,-0.016490383,0.22855347,0.36651227,1.374918,-0.027307352,-0.7109578,0.052784044,-1.1132398,1.1483675,0.4864982,0.095267594,-2.492357,0.5010377,0.026210664
p10_p21_i2_i2_a0.25,0.9480748,-0.4113297,1.4748793,0.23266795,-0.16604841,-0.019777166,0.5775584,0.050514117,-0.0034888089,1.3037903,0.10056147,0.02853233,-0.05549748,0.13545775,1.1029723,-0.09050166,-0.74736977,-0.06087213,0.035678532,0.5744465,-1.254493,-1.2651005,-0.09563913,-0.9208065,-0.01906887,-0.25153506,-1.954997,-0.001060009,0.008546979,3.0764084,0.78915936,0.07549252
p10_p21_i2_i2_a0.5,0.6217081,-0.302741,1.3433555,-0.009002149,0.03605415,-0.007880893,0.6177209,0.058920104,0.055165917,1.4945705,0.13739681,0.023266975,-0.049274646,0.13297953,0.66223365,-0.065468,-0.536278,-0.08098698,0.060019203,0.30730104,-1.375428,-0.6378855,-0.08517404,-0.851136,-0.006880978,-0.7269385,-2.2592742,0.21600012,0.0010238709,3.320877,0.7113335,0.07409983
p10_p21_i2_i2_a0.75,0.5907504,-0.092418626,1.0472372,-0.2859694,0.016847596,0.012541622,0.33302462,0.064930364,-0.022937894,1.5438641,0.12655917,-0.015843198,-0.002083606,0.12660752,0.4178843,-0.048386987,-0.14789161,-0.090438604,0.07626761,0.14246696,-1.3397033,-0.31248006,-0.057157554,-1.015759,0.008855271,-1.1291344,-2.289543,0.33109418,-0.016546432,3.2319155,0.70814157,0.08468471
p10_p21_i3_i3_a0.25,2.0565603,-1.2253851,1.2764187,2.1286447,-0.61385477,-0.020797564,0.031807493,-0.051391512,-0.784927,-0.43459353,-0.021034855,0.0221444,-0.035822332,0.06795183,0.14956176,-0.09848479,-0.9383806,-0.017435271,-0.0469113,0.71576446,0.21700136,0.680114,-0.104783826,0.14651889,-0.070511244,-0.0010038614,0.00973317,0.29612112,0.03157478,-0.26625773,-0.45278317,0.07568468
p10_p21_i3_i3_a0.5,1.9934833,-1.0816611,0.9439342,2.085288,-0.81015337,-0.032798834,-0.2909457,-0.06171862,-0.6264864,-0.16903922,-0.0146788815,-0.002253057,-0.021875214,0.038812935,-0.03940308,-0.09292628,-0.8583163,-0.049218744,-0.029485768,0.4431724,-0.08701879,1.2749271,-0.09008012,0.3973014,-0.0750835,-0.62001693,0.25363222,0.31591338,0.03466469,-0.6669643,-0.4418378,0.1045549
p10_p21_i3_i3_a0.75,1.888916,-0.9919811,0.43313327,1.8159257,-0.5585459,-0.05219028,-0.38027963,-0.056828115,-0.6302693,0.21744053,-0.010216002,-0.007873864,-0.010198726,0.04630631,-0.18796664,-0.061064158,-0.8259635,-0.075860575,-0.024703125,0.24139231,0.12403535,1.472127,-0.0430436,0.54917234,-0.07763278,-1.1048416,0.5545588,0.42961484,0.04022878,-0.8791179,-0.44295436,0.12271992
p10_p21_i4_i4_a0.25,0.36142433,0.24938565,-0.2568684,-0.79403496,0.2994712,-0.008970747,0.11613858,-0.029843103,0.100931495,0.23363574,-0.022091435,0.061651077,0.03870284,0.0348666,-0.30871177,-0.022383269,0.118849784,-0.037765305,0.012779083,0.5796303,-0.08631292,-1.4249372,0.031405672,-0.4833692,0.0062190574,-0.35957366,0.75762224,0.20250641,0.025114242,-0.12421292,1.3233926,-0.007694003
p10_p21_i4_i4_a0.5,0.521161,0.24190804,-0.40135965,-0.76713157,0.14636701,0.004650507,-0.1446203,0.003408039,0.2503216,0.062146697,-0.020194473,-0.013557956,0.0060337675,0.04021565,0.555379,-0.029527422,-0.11775395,-0.05061221,-0.019800747,0.40168875,-0.22647768,-0.94029075,0.03271784,-0.71375763,-0.008398894,-0.85297537,0.79232424,0.6676923,0.053949095,0.49983066,1.4508021,-0.06759367
p10_p21_i4_i4_a0.75,0.3033591,0.47532973,-0.66491294,-0.62594986,-0.034780353,0.022979701,-0.2983424,-0.0013500401,0.3306704,0.027544485,-0.050541382,-0.044514272,0.036941465,0.082387984,0.37288678,-0.034869473,-0.12425676,-0.062455643,0.0041320217,0.2451086,-0.27887008,-0.6635664,0.03457328,-1.0455176,-0.027407382,-1.3213967,0.65234154,1.2503769,0.055848032,0.6194811,1.6861261,-0.031852156
p10_p21_i5_i5_a0.25,-0.96366966,-0.48793828,-0.9216629,-0.2462239,0.82843435,-0.049198344,0.7762083,-0.022959277,-0.28159246,-0.11034809,-0.09573771,0.08259929,0.06237165,0.054656327,-1.1526132,-0.029017784,0.6486209,-0.040346004,0.018985815,0.6425206,-0.91782683,0.7771056,0.08944224,0.4243982,0.030345816,-0.06559324,0.81213754,-0.4888291,-0.014930662,-0.87219447,0.64566106,0.048677687
p10_p21_i5_i5_a0.5,-0.40033233,-0.2737676,-0.8275503,0.07727054,0.5811554,-0.060240127,0.6721425,-0.028491128,-0.24779879,0.022241693,-0.056487225,0.047437638,0.011237296,0.062356483,-1.4762806,-0.07020657,0.53209925,-0.07740328,0.024457017,0.3781404,-0.95932835,0.8903942,0.065350436,0.3093923,-0.002785784,-0.77321315,0.45808867,-0.20442769,0.0076039964,-0.46531218,0.3732968,0.062193904
p10_p21_i5_i5_a0.75,-0.19766259,-0.16087545,-0.7859347,0.1756269,0.55776423,-0.06805995,0.56465024,-0.017564261,-0.23413253,-0.10392442,-0.02513196,0.035916515,-0.004933103,0.07812351,-1.507336,-0.068657964,0.58001316,-0.07641819,0.02596646,0.2597584,-0.8573628,0.8174354,0.061262406,0.046374325,-0.00851975,-1.2263325,0.2894482,0.013745159,0.04532855,-0.21490735,0.28505117,0.06264494
p10_p22_i1_i1_a0.25,1.3048142,0.25226894,-0.3500808,0.5070615,-0.40015233,-0.00024888292,-0.25165957,-0.10928199,-0.16956052,-0.9810932,-0.17988387,0.038486473,0.08805483,0.03812135,-0.8236896,-0.010852133,0.31813234,0.0010549892,-0.048885576,0.60074455,0.10481118,1.7356317,-0.021707071,-0.578392,0.029307984,-0.097715855,1.1381037,0.2030808,0.081166305,-2.9491951,0.5109192,-0.015905946
p10_p22_i1_i1_a0.5,1.4462302,0.4726623,-0.60998404,0.69410527,-0.47951424,-0.002184894,-0.34031677,-0.109960616,-0.28062534,-0.82893705,-0.12538949,0.026577007,0.078259274,0.0619823,-0.9761406,0.0052369656,0.09998116,-0.01914352,-0.02664,0.35913754,0.023445576,1.4073977,-0.03084941,-0.6143943,0.038453672,-0.5799726,1.110073,0.30424273,0.07102672,-2.7531168,0.47963125,0.018210769
p10_p22_i1_i1_a0.75,1.5604484,0.6568135,-0.6698966,0.529575,-0.43417996,-0.016888278,-0.52813065,-0.077723965,-0.40246564,-0.67170703,-0.09026325,0.02087674,0.05546967,0.06721325,-1.1286464,0.011037567,-0.07904324,-0.042838886,-0.01581466,0.23615366,0.35455614,1.4230819,-0.024967166,-0.72146785,0.048087966,-1.0636458,1.1901447,0.4415157,0.098876186,-2.6633778,0.4905057,0.03031445
p10_p22_i2_i2_a0.25,-0.15577765,-0.20311941,2.2802165,0.47175148,0.131816,-0.022811962,0.65629506,0.037283037,0.27216652,1.4430839,0.15116656,0.056684885,-0.11491095,0.10711959,1.1183388,-0.061403748,-0.5078443,-0.06002902,0.05270476,0.5240266,-1.541373,-0.536001,-0.13596451,-0.5118003,0.0025404603,0.056385875,-2.6608446,-0.28384402,0.03021757,3.6984005,0.7706258,0.057672117
p10_p22_i2_i2_a0.5,0.22812997,-0.26703835,1.7307496,0.15950617,0.11359677,-0.007028157,0.77442783,0.054357596,0.17766592,1.5954883,0.16142827,0.035384227,-0.06700056,0.11998393,0.70763236,-0.052273866,-0.35385153,-0.073881164,0.07399003,0.296324,-1.4644403,-0.34883502,-0.10614454,-0.70510143,-0.0074138585,-0.5946627,-2.5330722,0.076013684,0.010477967,3.6097035,0.7038438,0.06454661
p10_p22_i2_i2_a0.75,0.45175397,-0.11233641,1.2003759,-0.23149255,0.05311604,0.010155613,0.42031613,0.060107846,0.04554537,1.5549331,0.13823675,-0.0088613825,-0.008178958,0.1255413,0.4429372,-0.042898543,-0.018361747,-0.08452712,0.0821258,0.13640618,-1.369509,-0.16745716,-0.06684766,-0.9409967,0.009647864,-1.084326,-2.407612,0.2751745,-0.014134938,3.2993493,0.71331275,0.08038267
p10_p22_i3_i3_a0.25,1.6743369,-0.37763584,1.0506123,1.8326381,-0.7115687,-0.010699403,-0.11512762,-0.04789144,-0.8117651,-0.4700001,-0.02797129,-0.00040348433,-0.046560697,0.04744955,0.077509224,-0.0915013,-0.6278454,-0.034818664,-0.032480612,0.65977365,0.22800852,1.1119658,-0.097161286,0.1349409,-0.050627,-0.31388104,0.22686125,0.47018075,0.06301821,0.7456718,-0.61492455,0.07454808
p10_p22_i3_i3_a0.5,1.857611,-0.78308064,0.8212092,1.916634,-0.828183,-0.025488617,-0.28708416,-0.049165238,-0.5635266,-0.1656074,-0.007778177,-0.015658576,-0.026837818,0.040710993,-0.048423707,-0.08643778,-0.7827357,-0.064010404,-0.026089972,0.38792652,-0.14339682,1.3485823,-0.08872432,0.39260015,-0.06545937,-0.77713776,0.27467376,0.40365553,0.03367578,-0.22399043,-0.4963917,0.10040583
p10_p22_i3_i3_a0.75,1.83884,-0.9270629,0.44375798,1.7906483,-0.5516229,-0.046197467,-0.41401762,-0.06541182,-0.56684256,0.14707689,-0.0071232487,-0.01257441,-0.014891946,0.04642411,-0.1907781,-0.05939612,-0.80711484,-0.08263006,-0.025661016,0.23034644,0.0737697,1.4814672,-0.040298663,0.62741566,-0.080909945,-1.1641098,0.5017288,0.47781825,0.044555046,-0.67164326,-0.47944337,0.11598262
p10_p22_i4_i4_a0.25,0.763076,0.71656775,-0.51869047,-0.37385678,-0.37727517,0.009220539,-0.5606911,-0.089584365,-0.5419477,0.06053658,-0.029964313,0.022898346,0.04465097,0.07838535,-0.82223696,-0.016165614,-0.079776555,-0.04780087,0.017360222,0.5150898,0.089988776,-0.496853,0.021267703,-0.94847965,0.019987032,-0.23514998,1.3552086,0.5149354,0.04482815,0.75451946,1.0839779,0.02606858
p10_p22_i4_i4_a0.5,0.62939745,0.427433,-0.44813597,-0.5449312,-0.041237526,0.012037618,-0.3967808,-0.0060596056,0.10134086,-0.00726489,-0.01393999,-0.0041902037,0.0034153638,0.040139977,0.09148079,-0.037800692,-0.21866116,-0.05760123,-0.014061449,0.4451843,-0.14167595,-0.55678785,0.016791832,-0.93371457,0.00405916,-0.76981366,1.1355729,0.718282,0.066905014,0.7909404,1.3853978,-0.056151185
p10_p22_i4_i4_a0.75,0.3341747,0.5442446,-0.67739034,-0.6171443,-0.06654691,0.024729185,-0.32981253,0.008175724,0.36863443,0.011343883,-0.0446035,-0.0408972,0.035997402,0.08737807,0.411752,-0.038838405,-0.11943796,-0.052541256,0.005108379,0.29365343,-0.28807223,-0.55690974,0.024224376,-1.1221305,-0.01705861,-1.2441468,0.8438218,1.274311,0.059317254,0.82339513,1.7447413,-0.032789085
p10_p22_i5_i5_a0.25,-0.41731286,0.0515835,-1.1219203,-0.22954376,1.1679504,0.008528708,0.29620302,-0.015260289,0.061353356,-0.43276784,-0.06911865,0.055364262,-0.010314849,0.08924438,-0.7539203,-0.02012128,0.45919558,-0.07822965,0.022732127,0.67137784,-1.060281,-0.6257407,0.019896096,0.06542215,0.067490615,-0.05221331,-0.062991075,-0.4065452,0.005871472,-0.08057986,0.56789804,0.04104754
p10_p22_i5_i5_a0.5,-0.2662491,0.018063277,-0.8786278,0.1307843,0.8825589,-0.04446575,0.57531905,-0.026794376,-0.19836429,-0.12177852,-0.04393457,0.052236408,-0.013952925,0.069278136,-1.3990488,-0.068905205,0.46686122,-0.076728195,0.036432095,0.48020405,-1.0666897,0.29048353,0.044333257,0.1923395,0.014105531,-0.62071717,0.10579856,-0.27230433,0.01624503,-0.3185996,0.40149677,0.05313064
p10_p22_i5_i5_a0.75,-0.15015909,-0.073350236,-0.79056895,0.23984525,0.63199896,-0.062476203,0.51237804,-0.017688721,-0.22779678,-0.14970323,-0.021176815,0.037266947,-0.017282583,0.0813871,-1.4976678,-0.06926365,0.5801397,-0.076242894,0.031142248,0.29455316,-0.9027081,0.6683915,0.05869846,0.028483463,-0.0049744127,-1.1753752,0.15411508,0.0011464953,0.045070454,-0.18387398,0.29227704,0.058322426
p10_p23_i1_i1_a0.25,-1.0101477,-0.42915136,0.33702433,-0.49202687,-0.79052126,-0.053516358,-0.21567707,-0.12359862,0.04436627,-0.7063777,-0.10427285,0.059928637,0.04703037,0.044970367,-0.82326865,-0.035004854,-0.112319976,-0.008694289,-0.026130544,0.43837363,-0.022367835,-1.2721014,0.04826028,-1.1942691,-0.05864568,-0.57825494,0.7154751,0.21314512,-0.015206888,-1.744789,0.19390826,-0.030064784
p10_p23_i1_i1_a0.5,0.50933397,0.028749287,-0.1215452,-0.09316413,-0.7720927,-0.004003139,-0.48680714,-0.14045,-0.20438263,-1.2914015,-0.110969156,0.039928846,0.06537241,0.064932734,-1.2179155,-0.01326236,-0.06570646,-0.01590118,-0.03888437,0.4543677,0.000027522445,-0.08057208,-0.03406146,-1.1141605,-0.024051085,-0.56350553,1.0612515,0.32067403,0.023209423,-2.4893026,0.43269777,-0.02295861
p10_p23_i1_i1_a0.75,1.3055462,0.60921425,-0.5861539,0.31482306,-0.5574414,-0.010392576,-0.58788073,-0.10934974,-0.40392372,-0.94209194,-0.08054161,0.01775305,0.060595356,0.060572352,-1.2261171,0.010365524,0.091670156,-0.043057933,-0.025577711,0.2511981,0.3603654,0.84364074,-0.022873161,-0.90545756,0.026405204,-1.0563521,1.1716393,0.4288344,0.07082507,-2.5634637,0.45678693,0.0126734
p10_p23_i2_i2_a0.25,1.5616122,-0.49629456,1.1048875,-0.018856853,0.17479938,-0.021179294,0.31401277,0.05249233,-0.010733277,1.0755152,0.09277384,0.024857372,-0.045402,0.12501745,0.6624494,-0.07301795,-0.54611063,-0.102193385,0.02968645,0.3743145,-1.4618282,-1.4050124,-0.052130617,-0.7874472,-0.01665106,-0.8427195,-2.0964744,0.10369781,-0.012049165,2.2580166,0.5858413,0.110547945
p10_p23_i2_i2_a0.5,1.288408,-0.3563844,1.2879405,-0.2228865,0.21993506,0.009534838,0.6426491,0.08139938,0.14423129,1.608605,0.13903055,0.0134818135,-0.034287695,0.13114206,0.6915645,-0.05358894,-0.6281258,-0.10963545,0.052274436,0.30718088,-1.6194386,-1.1222279,-0.048605993,-0.9406255,-0.015131679,-0.8997702,-2.4682384,0.25752658,-0.016456157,3.0061502,0.72058773,0.08795349
p10_p23_i2_i2_a0.75,0.8939526,-0.16949849,1.041355,-0.37440324,0.12270576,0.015291811,0.33498657,0.0772524,0.035257787,1.683675,0.13109966,-0.015927076,0.0071768286,0.12116201,0.4790892,-0.043978482,-0.21768221,-0.10604309,0.07268324,0.15552568,-1.4528039,-0.55418164,-0.04631398,-1.0207869,-0.0005480489,-1.1747762,-2.4103744,0.3603771,-0.024428263,3.1657743,0.7177169,0.092112295
p10_p23_i3_i3_a0.25,2.0534022,-1.0624381,0.5608206,1.0305077,-0.69128835,-0.088088356,-0.6953321,-0.067986295,-0.84949964,0.20947708,-0.036991686,0.056882415,0.012315562,-0.0005855458,-0.082271755,-0.08887018,-0.9329227,-0.021187458,-0.03334485,0.8201706,-0.019611657,-0.14224547,-0.037021056,-0.80591196,-0.07089024,-0.39328533,0.41301006,0.11329502,0.032571133,-1.7732011,-0.41874048,0.03148126
p10_p23_i3_i3_a0.5,1.987911,-0.8849699,0.6169481,1.5476567,-0.8039798,-0.07318988,-0.6101751,-0.085268855,-0.6151838,0.16836944,-0.01027394,0.012328316,-0.0018751817,0.00850705,-0.24303076,-0.067173004,-0.70149684,-0.055093665,-0.035021633,0.42213446,-0.13697505,0.9821725,-0.03911981,0.12357126,-0.072128005,-0.952695,0.31340477,0.23245527,0.03902635,-1.2782228,-0.44598967,0.06386736
p10_p23_i3_i3_a0.75,1.8601618,-1.0076073,0.39882365,1.6972562,-0.48262733,-0.059213452,-0.54031736,-0.09342337,-0.50067616,0.20685501,-0.009643924,0.0022647828,-0.010811263,0.04656908,-0.27701542,-0.051428918,-0.7948524,-0.08221878,-0.03518094,0.2560966,0.06768738,1.3670313,-0.018395348,0.6887024,-0.08648858,-1.2345695,0.49673015,0.4303575,0.05201122,-0.9444423,-0.49420345,0.09597616
p10_p23_i4_i4_a0.25,1.319274,0.18060508,-0.53279006,-0.09894,-0.99342275,-0.00554719,-0.5368312,-0.015025742,-0.66270113,-0.19807532,0.00731075,-0.0387747,0.012739167,0.09424333,-0.6889276,-0.0123952,-0.38878247,-0.050589733,0.001991747,0.5230518,-0.2154144,-1.4788208,0.016981408,-1.3903828,-0.05153528,-0.8432468,0.9172336,1.1508949,0.063471064,0.0035341028,1.1532319,-0.00006896164
p10_p23_i4_i4_a0.5,0.8727658,0.20964056,-0.6312573,-0.45920718,-0.55183244,0.016774213,-0.37749517,-0.012138693,-0.10005006,-0.06877287,-0.007873043,-0.06325418,0.011688009,0.08935012,0.35017186,-0.022826549,-0.3343754,-0.07113099,-0.013561493,0.40206438,-0.35546964,-1.3327436,0.03226605,-1.3048234,-0.06453148,-1.1425071,0.73606795,1.2891655,0.052974135,0.25014517,1.4676309,-0.04745677
p10_p23_i4_i4_a0.75,0.48352027,0.38072437,-0.6459714,-0.45936495,-0.2763462,0.03672512,-0.3875353,-0.013087011,0.2588199,-0.03443833,-0.043056697,-0.061174784,0.030600417,0.09405853,0.27825952,-0.038042493,-0.2656332,-0.078388974,0.004090923,0.27181792,-0.28675643,-0.89600414,0.03930842,-1.2108921,-0.05021958,-1.4228967,0.6313215,1.4421077,0.05766198,0.41647735,1.6688133,-0.032075975
p10_p23_i5_i5_a0.25,1.1435791,1.0513809,-1.2493498,-1.1674321,0.15210757,0.12402915,0.5170441,0.04577182,0.39046428,-0.3493292,0.07427229,0.011847724,-0.0053554922,0.12482056,-0.320199,-0.086351395,0.2258349,-0.1530267,0.05776254,0.47166854,-1.3373129,-2.0443358,-0.011506176,0.1916608,0.002740047,-0.73544985,-0.9377206,-0.1244829,-0.006533425,2.6987283,0.57489914,0.034654137
p10_p23_i5_i5_a0.5,0.5940989,0.7615245,-1.3086146,-0.55581725,0.51155746,0.028244015,0.23725004,0.008178913,0.12438658,-0.21661194,0.025228132,0.026234891,-0.026668593,0.08978242,-0.94225085,-0.0906229,0.2124284,-0.116907634,0.052666403,0.39642793,-1.1096337,-1.2112613,0.012604853,0.07702261,0.00665873,-0.9298361,-0.47696143,-0.16359851,0.022890497,1.4938308,0.4159543,0.050339665
p10_p23_i5_i5_a0.75,0.17951165,0.21222262,-1.2213012,-0.078954786,0.7146375,-0.05824683,0.30699143,0.007089475,-0.14189377,-0.16128907,0.01300364,0.043412603,-0.03661602,0.07249968,-1.3928846,-0.08296891,0.47541657,-0.09319506,0.043945238,0.33739096,-1.1244442,-0.17290756,0.054030105,0.10764164,0.004406226,-1.1557286,-0.24958985,-0.05193156,0.04677377,0.5845022,0.33831823,0.054745253
p10_p24_i1_i1_a0.25,0.83788073,0.4287892,-1.0471386,-0.77160084,-0.48979527,0.06057173,-0.104723155,-0.077261925,-0.3598878,-0.8450889,-0.057882898,0.04789574,0.0533559,0.044987597,-0.70944023,-0.036192674,1.3378675,-0.06651032,0.02111107,1.0199196,-0.14224234,-1.3706009,0.022488158,-0.3163386,-0.033446714,-0.90601027,0.34527588,0.5331302,0.0114617115,-2.25607,0.7267766,0.015577742
p10_p24_i1_i1_a0.5,1.3920035,0.6466839,-0.48342642,0.0753887,-0.7742341,0.022785233,0.011173584,-0.10712165,-0.45741984,-0.9965963,-0.07417235,0.036163356,0.059893984,0.04487454,-0.97851866,-0.028587315,0.8858714,-0.019548755,-0.0044445563,0.9132299,0.16086687,-0.39226574,0.0019470863,-0.84389216,-0.024301723,-0.8418803,0.57404244,0.5696785,0.046635374,-3.138317,0.7543402,-0.007906458
p10_p24_i1_i1_a0.75,1.4270499,0.63136554,-0.48975655,0.55610895,-0.68078864,-0.0029164422,-0.25117502,-0.11076927,-0.48663345,-1.0958132,-0.0910548,0.016316827,0.06986558,0.060784828,-1.1762288,-0.0039994465,0.38148442,-0.0019582883,-0.023814736,0.55212516,0.45966697,0.65220165,-0.0034008473,-1.1384141,0.0061325645,-1.0416266,1.0593432,0.5624789,0.09569225,-3.1212542,0.63421386,-0.0056676595
p10_p24_i2_i2_a0.25,1.6222812,-0.17134403,1.1769807,-1.0168666,0.22347987,-0.037042722,0.42240068,0.0660249,0.061971754,1.7444046,0.10534015,0.024249963,-0.03114586,0.065490976,0.8078459,-0.10370518,0.016328394,-0.09044436,0.07968198,0.75092155,-1.3144403,-2.312023,-0.0013309531,-0.9250659,-0.03421103,-1.0296937,-1.5339428,-0.26669368,-0.020205963,1.7541893,0.62956107,0.101676464
p10_p24_i2_i2_a0.5,1.3610764,-0.24462952,1.2535309,-0.67987657,0.28165886,-0.0038457345,0.4219943,0.09071061,0.18969241,1.9272709,0.12521985,0.018599764,-0.013830989,0.096428126,0.7200808,-0.08974364,-0.23851338,-0.10731499,0.06935683,0.53417236,-1.536053,-1.6694825,-0.015735501,-0.9948233,-0.02582891,-1.0973312,-2.0769036,-0.02119106,-0.027563773,2.5964677,0.71677876,0.097174026
p10_p24_i2_i2_a0.75,1.0928925,-0.27383238,0.9455905,-0.49798802,0.35900617,0.011468945,0.19324459,0.07614979,0.03148642,1.741139,0.12563308,-0.01375106,0.005829476,0.100250214,0.4165848,-0.05964743,-0.07446793,-0.12985697,0.06716503,0.27179158,-1.3038256,-0.9741077,-0.021688117,-1.070073,-0.015786067,-1.2954351,-2.2772138,0.31380388,-0.020777078,2.9572704,0.6919962,0.10042149
p10_p24_i3_i3_a0.25,2.0795128,-0.64058995,0.05277899,0.67462003,-0.10216057,-0.018916639,-0.2277483,-0.05312631,-0.06473461,-0.2628933,0.09584052,0.024454813,-0.050705623,0.11963789,-0.46806952,-0.08726067,-1.6419414,-0.0462536,0.00269566,0.87985617,-0.271102,-0.0107961,-0.108589284,0.10097684,-0.014364376,-1.1830263,-0.48255745,0.37195197,0.11639413,2.9891038,-0.74821925,0.0985892
p10_p24_i3_i3_a0.5,2.0424612,-0.601718,0.16663596,0.9587376,-0.2535866,-0.005727535,-0.44643477,-0.057632368,-0.31760532,-0.37408072,0.05250276,0.0152714,-0.07598431,0.09738907,-0.34282798,-0.062890776,-1.417772,-0.089827456,-0.007817041,0.52566093,-0.5585791,0.9076356,-0.07403938,0.8674941,-0.018764343,-1.3027253,-0.08379853,0.57684326,0.06176938,1.3137457,-0.6942772,0.09776607
p10_p24_i3_i3_a0.75,1.9045098,-0.7184576,0.25972113,1.3224657,-0.2783391,-0.024370527,-0.43938377,-0.07925232,-0.4899622,0.028688125,0.02554917,0.0057764733,-0.051236846,0.08383331,-0.29503426,-0.039373178,-1.116028,-0.090191126,-0.02144598,0.29450935,-0.16383561,1.3218725,-0.032647476,1.0510172,-0.06545687,-1.4180768,0.29204428,0.6801857,0.060982116,0.19014585,-0.6332653,0.10101284
p10_p24_i4_i4_a0.25,1.0328864,-0.23415469,-0.43291694,-0.54798555,-0.31827337,-0.006571306,-0.34301928,-0.047595844,-0.9394592,0.51348203,-0.036579765,0.02102375,-0.015249989,0.0109816985,-0.7578838,-0.005959712,-0.3551229,-0.059078436,0.063201554,0.6436352,-0.27616903,-1.8892028,0.0916869,-0.51200294,-0.0631005,-1.1254073,0.2456973,0.7973309,0.037028745,-2.1418803,0.5273295,0.051069282
p10_p24_i4_i4_a0.5,1.0981742,-0.2075331,-0.259197,-0.6045921,-0.35452652,0.011915019,-0.40818977,-0.0258695,-0.48270005,0.22925091,-0.008736434,-0.045118634,-0.029814672,0.037536204,-0.24895993,-0.009976943,-0.35274336,-0.102260515,0.0167096,0.48932844,-0.46151352,-1.486675,0.08813292,-0.78778446,-0.10375783,-1.3099267,0.3903865,1.0199121,0.07216887,-1.2602541,0.8855199,-0.024134513
p10_p24_i4_i4_a0.75,0.7765787,-0.021678701,-0.4435485,-0.5188789,-0.2900691,0.029568061,-0.3958802,-0.04216058,0.039290577,0.12320331,-0.021926157,-0.0755225,-0.0028739553,0.061630283,0.24166709,-0.026270606,-0.23226127,-0.11343731,0.021050561,0.40917736,-0.43782836,-1.2662582,0.079807624,-0.9442958,-0.09308947,-1.4795206,0.36437306,1.457262,0.05493459,-0.46591318,1.4081389,-0.035584275
p10_p24_i5_i5_a0.25,1.3777894,0.29644823,-2.214847,-1.9789866,1.0735712,0.010751136,1.3959457,0.14593752,0.17806104,-0.17709687,0.076951355,0.10653494,0.0698491,0.079826444,0.047403157,0.07390256,1.8519896,-0.12358591,0.13314803,1.0297863,-1.9060335,-1.5642653,0.058729343,0.17408223,0.04499071,-0.92704004,-1.4908758,-0.08062342,-0.016068408,-0.00026020408,0.9255093,0.034678105
p10_p24_i5_i5_a0.5,0.5695743,0.26977062,-1.9427483,-1.0924213,1.1699424,0.017380193,1.0856062,0.10322909,-0.027122736,-0.6695617,0.035064768,0.09477845,0.020424899,0.08189595,-0.31762758,0.025549628,1.533906,-0.09825398,0.09388712,0.8624477,-1.9029324,-0.77631134,0.042794354,-0.17416754,0.03949763,-1.0047356,-0.9564191,-0.061283648,0.021427471,0.100921296,0.7476606,0.010323194
p10_p24_i5_i5_a0.75,-0.04788448,0.0005465448,-1.2298145,-0.26068547,0.845478,-0.014748037,0.57070017,0.03507564,-0.22658665,-0.7642815,0.010055181,0.0668571,-0.025258072,0.09376645,-0.8865149,-0.01710641,1.0875771,-0.0638804,0.061791494,0.42677712,-1.4869695,0.09702109,0.0206809,-0.23126204,0.051314488,-1.3094976,-0.47556186,0.056163162,0.046172023,0.2051474,0.39713562,0.043841716
p10_p2_i1_i1_a0.25,2.5721672,0.79222596,-0.13503271,-1.7033322,0.05103126,0.15010461,0.41513574,0.096532255,0.57959175,0.19164588,0.10625872,0.028549522,0.021487217,0.11543183,0.101463735,-0.0673642,1.0241337,-0.17342699,0.05714482,0.30480433,-1.7904799,-1.8039234,-0.043306038,-0.08391458,0.020011224,-0.9030299,-1.9288732,0.29798824,-0.055621352,3.1616294,0.64776605,0.04467704
p10_p2_i1_i1_a0.5,2.1099458,0.85910857,-0.6159582,-0.89271224,0.2187841,0.09419196,-0.3471508,0.0058499267,-0.20931351,-0.6104383,0.053452544,0.007736626,0.033293262,0.08067714,-0.15763143,-0.020428583,0.9834137,-0.14975762,0.01775293,0.20669723,-0.6414299,-0.52677655,-0.034754664,-0.46366203,0.043284103,-1.2008741,-0.662185,0.50378627,-0.028641969,0.93746966,0.5229738,0.03180927
p10_p2_i1_i1_a0.75,1.7268318,0.4737869,-0.6406598,-0.084794626,0.11266491,0.017902391,-0.54598117,-0.032677367,-0.45970553,-0.8589096,-0.0057705157,0.026523374,0.049628418,0.055587724,-0.663244,-0.015992723,0.5403715,-0.10886893,-0.014873564,0.15671623,0.2668236,0.87721026,-0.020471549,-0.6441773,0.051470175,-1.3285252,0.70609087,0.5295738,0.033896327,-1.186067,0.44179243,0.015713794
p10_p2_i2_i2_a0.25,2.2755075,0.26705298,0.53904283,-1.9634497,0.17503315,0.121671595,0.99644876,0.12275441,0.6921531,1.4180559,0.20130394,0.015925378,0.00023049535,0.14315028,0.2715577,-0.09553549,0.1847808,-0.16105515,0.13160488,0.27508932,-1.9499903,-2.323467,-0.036909416,-0.38490206,-0.005394423,-0.94613814,-2.6000376,0.36145064,-0.057371087,4.429889,0.76366556,0.08514427
p10_p2_i2_i2_a0.5,1.7173913,0.18116632,0.7584474,-1.4231443,0.29785976,0.08982392,0.8109878,0.10971348,0.41722587,1.7550751,0.1782781,-0.0069966526,-0.0035496512,0.12981619,0.40033346,-0.09209813,-0.094019204,-0.13682967,0.12935124,0.17999989,-1.7241795,-1.8093789,-0.027614163,-0.7444783,-0.0016372115,-1.0354902,-2.6332285,0.4672104,-0.04550982,4.2474566,0.7729236,0.089020096
p10_p2_i2_i2_a0.75,1.2210753,0.12027797,0.6460532,-0.96025085,0.3145478,0.048473552,0.34861127,0.100881025,0.06577584,1.7350838,0.14813684,-0.019296383,0.012402393,0.10879518,0.27361673,-0.05800722,-0.19065884,-0.13151577,0.10261976,0.102416515,-1.4677975,-0.941606,-0.03024936,-0.92891914,0.0143612595,-1.2645283,-2.4529734,0.5333202,-0.037534792,3.6247272,0.71260184,0.10400939
p10_p2_i3_i3_a0.25,3.3556316,0.064841315,-0.60136807,-0.14352645,-1.3134,-0.065089576,0.41620862,0.0061964486,0.20772555,0.72546595,0.016340595,0.042731144,0.023826204,0.02075584,0.99072474,-0.067833275,-0.6021186,-0.020795593,0.0070564235,0.63843614,-1.068285,2.8439963,-0.050873533,0.17850164,-0.07976248,-0.8524028,1.1398948,0.45726243,0.08072662,-1.8333651,-0.63540035,0.063413575
p10_p2_i3_i3_a0.5,2.6853304,-0.24453782,-0.0032679588,0.6591821,-1.0545624,-0.048425354,-0.08996413,-0.0847691,0.187403,0.5728675,0.017411746,-0.018398196,-0.023850214,0.026706908,0.5089639,-0.0686613,-0.9268358,-0.09253592,-0.011615157,0.4536391,-0.6453737,2.1270065,-0.015396753,0.65903354,-0.1462162,-1.0989416,0.8009952,0.5798547,0.096564256,-1.5539258,-0.6257641,0.05355905
p10_p2_i3_i3_a0.75,2.1129477,-0.6029964,0.06654547,1.3021584,-0.5496197,-0.04811453,-0.3490679,-0.10685398,-0.22852387,0.55833805,0.012137234,-0.01687169,-0.017039314,0.056158528,0.14660287,-0.04392915,-0.97165394,-0.104296006,-0.021432513,0.25223982,-0.18765384,1.7911141,0.0048716664,0.9065465,-0.14195698,-1.3152833,0.8200192,0.68826604,0.08143921,-1.1995069,-0.59151006,0.083165765
p10_p2_i4_i4_a0.25,2.0018086,0.5909904,0.43867853,-1.7859403,0.3955316,0.09132222,-0.06767869,0.094536096,0.68497336,1.2426974,0.118471205,-0.036791693,0.030974228,0.11418946,0.46924204,-0.10246706,0.6245953,-0.16945767,0.09689628,0.22867572,-1.634727,-2.285287,0.0061820373,-0.3186614,-0.00071562524,-0.9768497,-1.9819223,0.34209496,-0.018002767,3.638406,1.0677963,0.067893095
p10_p2_i4_i4_a0.5,1.4131631,0.5566758,0.041448057,-1.4958112,0.34741467,0.04639868,-0.53945136,0.039641123,0.1241751,0.90150017,0.079697646,-0.0637012,0.057584822,0.0931434,0.4579566,-0.054676812,0.5720774,-0.12032268,0.11912838,0.23131311,-0.93267006,-1.8237045,0.012673802,-0.88585186,0.015467321,-1.2626516,-1.3823901,1.1581808,-0.04830052,2.5953543,1.3865042,0.086851455
p10_p2_i4_i4_a0.75,0.65547496,0.39818996,-0.6202854,-0.7305738,0.24523607,0.04267987,-0.44739908,0.01803381,0.22759262,0.40738732,0.0072087366,-0.07331007,0.060377173,0.10265662,0.325665,-0.03881714,0.24897966,-0.101724125,0.07458322,0.20491427,-0.32923228,-1.0847628,0.043027192,-1.0786381,0.00080099003,-1.510591,-0.38670385,1.4776981,0.007547642,1.6027492,1.6479126,0.04086807
p10_p2_i5_i5_a0.25,1.7573351,0.77729845,0.623451,-1.6417928,0.69291764,0.14392872,0.5558431,0.06393848,0.9776995,0.5545406,0.1513803,-0.031210903,-0.0013713613,0.11895457,0.118489146,-0.16217601,0.8039104,-0.17073986,0.124021985,0.30788243,-1.6881332,-3.08525,-0.029012287,0.030430358,-0.002931045,-0.9316294,-2.0736604,-0.30848882,-0.03650593,4.012376,0.8417763,0.07274661
p10_p2_i5_i5_a0.5,1.2027053,0.7468304,0.36680892,-0.7566296,0.8728792,0.093029834,-0.035757262,0.025839332,0.2778456,0.31426233,0.077955216,-0.044368822,-0.022870101,0.06901921,-0.30479932,-0.13221939,0.78115195,-0.1369028,0.081157126,0.23515302,-1.0038908,-1.8146391,0.0031583905,-0.110982955,-0.011193607,-1.1987293,-1.3737158,-0.10255918,0.004349635,2.5373166,0.5863383,0.07521509
p10_p2_i5_i5_a0.75,0.5437533,0.20755455,-0.54541385,-0.25918698,0.9511041,-0.009766182,0.0051792637,0.004145869,-0.02365002,-0.076861486,0.050012708,0.008451465,-0.056823757,0.06519064,-0.9641002,-0.10262808,0.6404613,-0.11331801,0.058150306,0.21992737,-1.0827239,-0.9496984,0.035832807,-0.066564515,-0.0095505435,-1.314458,-0.88175374,-0.050591648,0.046096347,1.3093429,0.36941856,0.072389424
p10_p3_i1_i1_a0.25,2.0666656,-0.30217564,-0.327973,0.26076564,-0.19629465,-0.032672867,-0.3565167,-0.0153943775,-0.13984266,-0.0026899427,-0.049311887,0.051027924,-0.0013176436,0.035797764,-0.76168406,-0.049362116,0.059209704,-0.045781657,0.01787748,0.44513398,-0.30913198,2.1263115,-0.028586267,0.12558915,0.010496157,-1.0421443,-0.0848186,0.7317276,0.067195065,-1.1837442,-0.3466006,0.07444747
p10_p3_i1_i1_a0.5,1.8880148,-0.013675347,-0.67701817,0.49237826,0.1292991,-0.025914641,-0.48673084,-0.04254189,-0.26665986,-0.2829314,-0.05065617,0.02900495,0.0376771,0.047775667,-0.8653197,-0.037681505,0.15835813,-0.07210787,-0.01865232,0.31883478,-0.07514107,1.8212276,-0.017165406,-0.47953585,0.040547304,-1.1693317,0.686912,0.5580971,0.05839722,-1.620389,0.09249993,0.052679583
p10_p3_i1_i1_a0.75,1.7301362,0.34337813,-0.82469094,0.47391555,-0.064082555,-0.01893649,-0.5038906,-0.04450908,-0.3464728,-0.43729946,-0.06222769,0.028671332,0.05612842,0.07620698,-1.024437,-0.016704287,-0.13784721,-0.074614435,-0.026178988,0.21965086,0.17669278,1.7107728,-0.024887824,-0.688913,0.057082787,-1.2888101,1.169372,0.5137999,0.07688273,-2.0852156,0.32249165,0.05078501
p10_p3_i2_i2_a0.25,2.080806,-0.13844948,0.1509105,-0.49148273,-0.30942506,0.014002286,-0.23353623,0.07378435,-0.015054971,0.6556849,0.07338294,0.083038986,-0.07257873,0.09547554,-0.67673695,-0.06119581,-0.60173166,-0.111302294,0.0488426,0.516213,-1.3761063,1.2754366,-0.10379459,0.30300334,0.05394656,-0.99952084,-1.7822783,0.55548656,0.014472428,2.182586,-0.3072027,0.13696338
p10_p3_i2_i2_a0.5,1.5219024,-0.058829144,0.30269507,-0.7358916,-0.08172363,0.011174092,0.13862242,0.094892815,0.003360659,0.9447177,0.15892668,0.07677211,-0.058535118,0.119951636,-0.22203892,-0.045675244,-0.5560019,-0.12221084,0.05615168,0.39681512,-1.6581888,0.5572672,-0.09445732,-0.2937984,0.051224,-1.030369,-2.1468945,0.4963203,0.00076298043,3.2510598,0.26772767,0.11095963
p10_p3_i2_i2_a0.75,1.1751337,-0.01655294,0.88262033,-0.66546506,0.07948868,0.017322721,0.20151769,0.09150052,0.13474616,1.5656619,0.15511315,0.031307265,-0.009932152,0.12403412,0.25521052,-0.060896423,-0.26678798,-0.1113389,0.08491864,0.28909332,-1.6546514,0.1280964,-0.07000167,-0.76983225,0.040890377,-1.0763915,-2.4893959,0.39418244,-0.017226456,3.587375,0.6039273,0.10471687
p10_p3_i3_i3_a0.25,1.9003906,-0.43029964,0.09221427,0.8583592,-0.22825974,-0.075337216,-0.024745788,-0.032402217,-0.05108893,0.18704413,-0.008374327,0.047083594,-0.014705452,0.06311621,-0.34554347,-0.045013197,-0.6975367,-0.024025524,0.003874822,0.51821774,-0.20561904,2.2978427,-0.007984702,0.5624838,-0.014631209,-1.1736883,0.086061075,0.58105725,0.08942839,-0.19171989,-0.88475317,0.0470819
p10_p3_i3_i3_a0.5,1.8108333,-0.5777638,0.2090536,1.2789551,-0.46537736,-0.04227601,-0.21944848,-0.07709326,-0.017825544,0.19684494,0.003400093,0.01906867,-0.027650516,0.037265528,-0.22507429,-0.049551815,-0.86675906,-0.07633791,-0.002288199,0.28794318,-0.27067116,1.8757596,-0.008967698,0.7027864,-0.069182046,-1.3192807,0.12453514,0.5111037,0.070314325,-0.42689604,-0.74825484,0.072481014
p10_p3_i3_i3_a0.75,1.7702868,-0.80724937,0.15331787,1.6089758,-0.34830236,-0.0417912,-0.40736052,-0.09867151,-0.2550749,0.2746799,0.0027749613,0.007896393,-0.023728788,0.052258085,-0.21314108,-0.037617754,-0.92668664,-0.09411605,-0.015035575,0.17883319,-0.05148405,1.7193997,0.004027402,0.90650284,-0.08790811,-1.4006534,0.4541739,0.5938897,0.061416544,-0.62796247,-0.64566445,0.09430407
p10_p3_i4_i4_a0.25,1.5862701,0.03292778,-0.74068487,-0.35921162,0.08704808,-0.03208427,-0.85270256,0.022716725,-0.33090207,0.29630697,0.021138117,0.03115258,0.002277982,0.076994315,-1.0355994,-0.040174454,-0.23996362,-0.10210435,0.026709668,0.44691342,-0.48950696,1.7237139,0.00051252916,-0.57268775,0.031628635,-1.1123911,-0.20623326,0.76811147,0.068013735,0.70757616,0.32821608,0.094456635
p10_p3_i4_i4_a0.5,1.1437128,0.2997985,-0.69198227,-0.4597051,0.2391673,0.0017955508,-0.7416814,0.045524813,-0.4812523,-0.0012190565,0.03630619,-0.0029906444,-0.01742858,0.082953736,-0.8030735,-0.023370266,-0.16056725,-0.118673705,0.022191089,0.33995885,-0.27803758,0.9692465,0.015124703,-0.9040293,0.018276434,-1.3037391,0.228227,0.9559841,0.09423278,0.66660196,0.7898434,0.021326754
p10_p3_i4_i4_a0.75,0.70879173,0.30950317,-0.70292914,-0.515862,0.1656265,0.032073162,-0.34991765,0.031414613,0.2809632,-0.025601614,-0.016041663,-0.033715975,0.009704402,0.091695055,0.100091636,-0.04931807,-0.0389629,-0.09213722,0.024930574,0.24478817,-0.27696496,0.09095895,0.036873095,-0.96367294,-0.018636625,-1.4716598,0.41641793,1.4041396,0.08061139,0.7460454,1.4326833,-0.016820725
p10_p3_i5_i5_a0.25,1.6465253,0.5208825,-0.2652789,-0.5724189,1.3973598,-0.0014223028,0.04478426,0.028853208,0.5707377,-0.19284917,0.033825923,0.008688248,-0.027357746,0.057604585,-0.61061156,-0.14469841,0.9830656,-0.15683314,0.06090586,1.0579379,-1.0815234,-2.02301,0.018855274,-0.09695019,-0.00727594,-0.30357295,-1.1177186,-0.7178613,0.038965188,1.7805289,0.71190405,0.03922658
p10_p3_i5_i5_a0.5,0.88561976,0.32557762,-0.91877604,-0.06319231,1.2984273,-0.04528986,0.17652945,-0.0066314847,0.12686977,-0.15578471,0.0086887255,0.024521396,-0.038364705,0.069312766,-1.2945104,-0.099895015,0.88738585,-0.11426025,0.05331687,0.61265653,-1.1249261,-1.043463,0.040895514,-0.11942747,-0.019732896,-0.7644138,-0.57244563,-0.4068016,0.058214024,0.8079614,0.44290626,0.037128285
p10_p3_i5_i5_a0.75,0.20020635,-0.03417103,-0.83019316,0.12193814,0.8088116,-0.061798252,0.27638096,-0.006139737,-0.16833878,-0.1889694,-0.001507679,0.0373823,-0.03313264,0.07794112,-1.4631681,-0.07621503,0.6603695,-0.084687546,0.03970652,0.35183054,-1.0379379,0.15084614,0.053479455,0.03299783,0.0013797726,-1.1827873,-0.087479755,-0.068912864,0.055705823,0.16702153,0.3117292,0.058404125
p10_p4_i1_i1_a0.25,1.745679,-0.027577296,-0.32756728,0.5395386,-0.3420295,-0.02799181,-0.22518423,-0.024277346,-0.2757311,-0.063751,-0.06241721,0.038695753,-0.003263087,0.018759333,-0.9458253,-0.044985034,0.71084094,-0.0431718,0.003989277,0.45461696,-0.31603074,2.0092711,-0.021886522,0.37367937,0.03561326,-0.8284178,-0.08524409,0.47985947,0.058402903,-1.5267949,-0.48964882,0.059645783
p10_p4_i1_i1_a0.5,1.6582568,-0.030613586,-0.5837932,0.6278095,-0.08483952,-0.011516793,-0.31729692,-0.06652349,-0.29799703,-0.30125153,-0.074929155,0.0351928,0.038024556,0.03953043,-1.1425068,-0.030560758,0.5003241,-0.046726044,-0.011964666,0.24723494,-0.15417355,1.6612494,-0.019689186,-0.092413664,0.04076128,-1.0705997,0.6812376,0.41631362,0.023261864,-1.8486214,-0.17699271,0.051878497
p10_p4_i1_i1_a0.75,1.567199,0.38405442,-0.8878921,0.4992446,-0.10665791,-0.022552451,-0.48642564,-0.06705395,-0.3614632,-0.4843976,-0.06746143,0.030690946,0.06251802,0.08292247,-1.1767921,-0.015532809,-0.025495559,-0.068815395,-0.023537429,0.18030316,0.12913452,1.6976974,-0.025366647,-0.61564064,0.06898397,-1.2670248,1.232097,0.4404137,0.059640095,-2.2246897,0.25659424,0.060012624
